tree
version=v4
num_class=1
num_tree_per_iteration=1
label_index=0
max_feature_idx=2
objective=binary sigmoid:1
feature_names=country region year
feature_infos=[0:212] [0:6] [2000:2022]
tree_sizes=3325 3352 3349 3356 3361 3367 3352 3367 3363 3365 3374 3359 3361 3367 3370 3378 3373 3380 3380 3373 3382 3377 3370 3368 3366 3375 3376 3379 3361 3378 3379 3374 3395 3372 3382 3381 3385 3371 3388 3393 3385 3378 3392 3372 3394 3382 3388 3388 3396 3373 3382 3380 3391 3383 3388 3401 3378 3394 3387 3395 3378 3384 3405 3391 3391 3386 3400 3389 3385 3397 3379 3398 3391 3393 3378 3388 3397 3392 3385 3391 3395 3387 3392 3398 3413 3402 3389 3383 3390 3385 3407 3382 3389 3384 3386 3393 3384 3419 3383 3399 3381 3399 3389 3387 3409 3382 3394 3387 3424 3377 3377 3397 3401 3397 3388 3399 3399 3403 3400 3389 3406 3397 3417 3386 3388 3423 3385 3397 3394 3412 3403 3389 3396 3393 3405 3380 3418 3395 3404 3403 3410 3393 3406 3388 3409 3398 3403 3396 3402 3381 3395 3406 3405 3400 3403 3405 3416 3407 3409 3388 3418 3379 3411 3409 3379 3377 3383 3408 3409 3390 3399 3415 3413 3411 3409 3422 3410 3402 3389 3408 3414 3411 3398 3430 3402 3392 3417 3411 3413 3391 3402 3404 3429 3430 3436 3414 3402 3426 3409 3394 3416 3386 3415 3421 3425 3423 3415 3414 3434 3407 3407 3421 3423 3425 3388 3400 3431 3436 3430 3394 3428 3410 3427 3396 3408 3398 3413 3420 3407 3402 3403 3407 3413 3424 3425 3415 3416 3419 3424 3403 3406 3425 3416 3414 3450 3417 3409 3405 3402 3432 3397 3428 3419 3401 3400 3407 3418 3418 3406 3394 3446 3420 3443 3436 3425 3411 3427 3427 3404 3404 3432 3426 3425 3416 3420 3427 3421 3417 3411 3419 3403 3434 3424 3430 3431 3446 3442 3415 3404 3419 3421 3438 3421 3420 3436 3432 3434 3424 3426 3417

Tree=0
num_leaves=31
num_cat=0
split_feature=2 1 2 0 0 0 1 1 0 0 0 0 1 0 1 0 0 0 0 0 0 1 0 0 0 0 0 0 1 0
split_gain=512.748 456.704 268.597 91.1405 72.31 83.4299 33.9198 42.6471 28.4995 95.1348 26.8054 25.1273 20.0456 15.6857 14.7402 17.1909 73.0251 12.0199 15.7181 11.9825 11.1965 10.5681 20.6099 10.1439 10.1398 8.27961 7.93063 36.3087 24.2545 17.725
threshold=2015.5000000000002 4.5000000000000009 2021.5000000000002 176.50000000000003 69.500000000000014 42.500000000000007 1.0000000180025095e-35 1.5000000000000002 161.50000000000003 131.50000000000003 22.500000000000004 117.50000000000001 4.5000000000000009 99.500000000000014 2.5000000000000004 78.500000000000014 84.500000000000014 134.50000000000003 84.500000000000014 113.50000000000001 79.500000000000014 5.5000000000000009 24.500000000000004 135.50000000000003 12.500000000000002 33.500000000000007 155.50000000000003 180.50000000000003 2.5000000000000004 124.50000000000001
decision_type=2 2 2 2 2 2 2 2 2 2 2 2 2 2 2 2 2 2 2 2 2 2 2 2 2 2 2 2 2 2
left_child=1 14 6 4 5 21 17 19 9 11 12 13 24 20 15 -1 -17 18 -2 -8 -6 -3 -23 -11 -9 -24 29 28 -28 -12
right_child=2 3 -4 -5 8 -7 7 10 -10 23 26 -13 -14 -15 -16 16 -18 -19 -20 -21 -22 22 25 -25 -26 -27 27 -29 -30 -31
leaf_value=-0.73935330333509075 -0.67313514635778693 -0.71619043951676875 -0.74309165369207053 -0.52961750249451445 -0.6464283848040997 -0.52961750249451445 -0.57562178833561828 -0.65616262499656519 -0.73139267882969317 -0.61357532415452887 -0.60169088364557699 -0.75350502692121957 -0.58292405592944418 -0.62912306890638336 -0.7495540706078071 -0.59230600933399191 -0.72336632170993231 -0.67674358997492068 -0.58817270119072962 -0.52961750249451445 -0.73788496707749596 -0.55545067838990358 -0.6901406332155483 -0.52961750249451445 -0.75350502692121957 -0.63100053242358844 -0.75350502692121957 -0.57079221963046023 -0.62912306890638336 -0.54241107531889754
leaf_weight=137.79240714013577 8.7097307592630404 5.3598343133926383 38.412145912647247 19.876052245497704 5.1365078836679485 23.449275121092796 32.605658739805222 5.1365078836679441 18.089440807700157 5.3598343133926418 65.211317479610443 14.292891502380369 4.6898550242185584 12.059627205133436 75.930986106395721 11.166321486234663 220.64651256799698 15.632850080728529 14.516217932105063 25.012560129165649 9.6030364781618101 5.8064871728420284 11.836300775408747 10.94299505650997 5.5831607431173325 11.836300775408743 5.8064871728420266 19.429399386048317 12.059627205133438 15.632850080728529
leaf_count=617 39 24 172 89 23 105 146 23 81 24 292 64 21 54 340 50 988 70 65 112 43 26 53 49 25 53 26 87 54 70
internal_value=-0.678127 -0.703854 -0.6207 -0.629521 -0.644365 -0.602531 -0.600262 -0.591605 -0.676668 -0.65942 -0.607117 -0.699967 -0.669142 -0.671413 -0.729489 -0.725367 -0.717053 -0.642848 -0.620034 -0.555651 -0.706014 -0.651607 -0.639865 -0.55722 -0.706862 -0.660571 -0.599027 -0.6181 -0.669547 -0.590228
internal_weight=867.623 599.185 268.438 153.649 133.773 58.2882 230.026 191.167 75.4843 57.3949 133.549 41.0921 15.4095 26.7992 445.536 369.605 231.813 38.8588 23.2259 57.6182 14.7395 34.8389 29.4791 16.3028 10.7197 23.6726 118.14 37.2955 17.8661 80.8442
internal_count=3885 2683 1202 688 599 261 1030 856 338 257 598 184 69 120 1995 1655 1038 174 104 258 66 156 132 73 48 106 529 167 80 362
is_linear=0
shrinkage=1


Tree=1
num_leaves=31
num_cat=0
split_feature=2 1 2 0 0 0 1 1 0 0 0 0 0 1 1 0 0 1 0 0 0 0 0 0 0 1 0 0 0 0
split_gain=458.39 416.055 237.317 76.6669 63.0499 69.7724 28.7668 35.3377 26.5477 57.5368 28.0049 23.4065 23.012 17.6716 14.1268 16.349 45.2368 27.1883 14.0379 10.5197 13.5137 10.4645 16.1709 10.3054 9.6939 9.45779 17.5937 9.42215 8.39833 27.0761
threshold=2015.5000000000002 4.5000000000000009 2021.5000000000002 176.50000000000003 69.500000000000014 42.500000000000007 1.0000000180025095e-35 1.5000000000000002 165.50000000000003 131.50000000000003 161.50000000000003 117.50000000000001 22.500000000000004 4.5000000000000009 2.5000000000000004 76.500000000000014 88.500000000000014 1.0000000180025095e-35 99.500000000000014 134.50000000000003 84.500000000000014 106.50000000000001 112.50000000000001 79.500000000000014 113.50000000000001 5.5000000000000009 24.500000000000004 12.500000000000002 191.50000000000003 182.50000000000003
decision_type=2 2 2 2 2 2 2 2 2 2 2 2 2 2 2 2 2 2 2 2 2 2 2 2 2 2 2 2 2 2
left_child=1 14 6 4 5 25 19 24 9 11 -11 18 13 27 15 -1 17 -17 23 20 -2 -18 -23 -6 -8 -3 -27 -9 29 -24
right_child=2 3 -4 -5 8 -7 7 12 -10 10 -12 -13 -14 -15 -16 16 21 -19 -20 -21 -22 22 28 -25 -26 26 -28 -29 -30 -31
leaf_value=-0.059922644081094302 0.0047340513221229763 -0.036636910194469519 -0.063135386270480279 0.13491412565279601 0.029801875963838671 0.13491412565279601 0.094316677165047103 0.020715043845543402 -0.065920468571798937 0.11069145206431599 -0.019351384835376816 -0.073535688928685422 0.073293181618787048 0.087783282722807277 -0.069580066152057349 -0.074015895169547027 -0.071204498982899017 0.054323374188112866 0.045819927791642949 0.0013133254145198366 0.083071197416238696 0.043952586031394736 -0.045680405350440496 -0.057965627743180287 0.13491412565279601 0.11223319881045279 0.016577131002286853 -0.073535688928685394 -0.063804153930539564 0.022735691548104082
leaf_weight=129.04627934098244 8.7238944321870822 5.291901469230651 37.5704465508461 20.759892508387566 5.1887987256050137 24.49200801551342 33.635973662137985 5.1729328781366331 12.282827019691466 16.898523852229122 5.4834049195051184 13.927737236022947 121.02160543203354 4.8281056433916083 74.096135497093201 5.260392218828204 32.772626295685768 19.148256555199623 12.24760928750038 15.639907568693159 14.921823441982268 5.4987628012895575 117.23362292349339 9.4099496901035291 26.124808549880981 6.0233430862426784 23.803483203053474 5.4405223578214645 38.271389096975327 16.496288403868675
leaf_count=590 39 24 172 89 23 105 146 23 56 73 25 64 529 21 340 24 149 85 54 70 65 25 533 43 112 26 106 25 174 75
internal_value=-4.77444e-05 -0.0247102 0.0535645 0.0454578 0.0317065 0.0701392 0.0721815 0.0800005 0.00133753 0.0144181 0.0788319 -0.0209402 0.065959 0.0084779 -0.049681 -0.0456273 -0.0377666 0.0266645 0.006346 0.033127 0.0541693 -0.0452459 -0.040453 -0.0267706 0.112064 0.0249648 0.0358943 -0.0275985 -0.0431514 -0.0372409
internal_weight=866.713 593.633 273.08 155.809 135.05 59.6107 235.51 196.224 75.4389 63.156 22.3819 40.7741 136.463 15.4416 437.824 363.728 234.681 24.4086 26.8464 39.2856 23.6457 210.273 177.5 14.5987 59.7608 35.1187 29.8268 10.6135 172.001 133.73
internal_count=3885 2683 1202 688 599 261 1030 856 338 282 98 184 598 69 1995 1655 1065 109 120 174 104 956 807 66 258 156 132 48 782 608
is_linear=0
shrinkage=0.05


Tree=2
num_leaves=31
num_cat=0
split_feature=2 1 2 0 0 0 1 1 0 0 0 0 0 1 1 0 0 0 0 0 0 0 1 0 0 0 0 0 0 0
split_gain=411.419 379.988 210.882 65.7594 55.4302 59.683 24.7337 30.0684 24.4226 51.0159 24.1888 21.8457 19.8868 15.6669 13.5902 15.6481 61.1046 12.5868 9.4963 9.25913 11.7295 8.77313 8.48302 15.2326 8.19488 8.15549 7.30826 7.2723 7.17362 25.8879
threshold=2015.5000000000002 4.5000000000000009 2021.5000000000002 176.50000000000003 69.500000000000014 42.500000000000007 1.0000000180025095e-35 1.5000000000000002 165.50000000000003 131.50000000000003 161.50000000000003 117.50000000000001 22.500000000000004 4.5000000000000009 2.5000000000000004 78.500000000000014 84.500000000000014 99.500000000000014 79.500000000000014 134.50000000000003 84.500000000000014 12.500000000000002 5.5000000000000009 24.500000000000004 113.50000000000001 135.50000000000003 33.500000000000007 30.500000000000004 191.50000000000003 182.50000000000003
decision_type=2 2 2 2 2 2 2 2 2 2 2 2 2 2 2 2 2 2 2 2 2 2 2 2 2 2 2 2 2 2
left_child=1 14 6 4 5 22 19 24 9 11 25 17 13 21 15 -1 -17 18 -6 20 -2 -9 -3 -24 -8 -11 27 -25 29 -18
right_child=2 3 -4 -5 8 -7 7 12 -10 10 -12 -13 -14 -15 -16 16 28 -19 -20 -21 -22 -23 23 26 -26 -27 -28 -29 -30 -31
leaf_value=-0.057769491488993401 0.0044902885224089341 -0.035268086186342341 -0.06142935249802528 0.12419719681975311 0.028048248467463455 0.12419719681975311 0.087387038986978763 0.019549110276110535 -0.064187414160091383 0.05283163995988234 -0.018513669638071838 -0.071867081412529246 0.068209073059713438 0.081438672308441984 -0.06788535160748875 0.075476797817500441 -0.044128637027727818 0.042930726368983915 -0.056277803153653529 0.0012471120224625406 0.077142177041374826 -0.071867081412529218 0.10365663438554716 0.027684861213038217 0.12419719681975311 0.12601639869987333 0.043043641952583145 -0.050654964364271041 -0.062061592636648927 0.021427352352126929
leaf_weight=132.10755153000355 8.7372584491968173 5.2241749763488761 36.705216288566589 21.405428618192673 5.236281797289851 25.253595560789108 34.465165883302689 5.2064878791570646 11.991159796714781 5.6360957622528138 5.4459217935800543 13.548173904418944 123.47310417890549 4.9409274011850348 72.196830213069916 11.637450754642485 159.93667417764664 12.413793861865996 9.2125961482524854 15.646598935127257 15.256073996424673 5.2922554314136505 6.1909500360488918 5.8151210546493548 26.937168598175049 11.727872833609579 12.074149310588835 6.0387795567512512 37.400842845439911 16.624937206506729
leaf_count=617 39 24 172 89 23 105 146 23 56 24 25 64 529 21 340 50 739 54 43 70 65 25 26 26 112 49 53 27 174 75
internal_value=-8.47481e-05 -0.0237724 0.0501843 0.0427446 0.0299065 0.065494 0.0672575 0.0743985 0.00123428 0.0136429 0.0734262 -0.0201018 0.0615193 0.00801998 -0.0480973 -0.0441035 -0.0361009 0.00600599 -0.025718 0.0311714 0.0506857 -0.0265324 0.0235491 0.033751 0.103536 0.102262 0.0156641 -0.0122241 -0.0421696 -0.0379559
internal_weight=863.779 587.118 276.66 157.214 135.809 60.5968 239.955 200.315 75.2119 63.2207 22.8099 40.4108 138.913 15.4397 429.904 357.707 225.6 26.8627 14.4489 39.6399 23.9933 10.4987 35.3432 30.119 61.4023 17.364 23.928 11.8539 213.962 176.562
internal_count=3885 2683 1202 688 599 261 1030 856 338 282 98 184 598 69 1995 1655 1038 120 66 174 104 48 156 132 258 73 106 53 988 814
is_linear=0
shrinkage=0.05


Tree=3
num_leaves=31
num_cat=0
split_feature=2 1 2 0 0 0 0 0 1 1 0 0 0 1 1 0 0 0 0 0 0 0 1 0 0 0 0 0 1 1
split_gain=370.448 347.725 188.282 57.2791 49.0663 51.9748 22.507 45.5098 21.5137 26.1365 21.1516 20.4249 17.2845 13.9539 13.1206 14.9115 55.3927 11.304 8.75967 8.18897 10.2621 8.18403 7.62359 13.3415 7.17418 7.03769 6.85919 23.9101 14.4874 11.1839
threshold=2015.5000000000002 4.5000000000000009 2021.5000000000002 176.50000000000003 69.500000000000014 42.500000000000007 165.50000000000003 131.50000000000003 1.0000000180025095e-35 1.5000000000000002 161.50000000000003 117.50000000000001 22.500000000000004 4.5000000000000009 2.5000000000000004 78.500000000000014 84.500000000000014 99.500000000000014 79.500000000000014 134.50000000000003 84.500000000000014 12.500000000000002 5.5000000000000009 24.500000000000004 113.50000000000001 135.50000000000003 191.50000000000003 182.50000000000003 1.0000000180025095e-35 1.5000000000000002
decision_type=2 2 2 2 2 2 2 2 2 2 2 2 2 2 2 2 2 2 2 2 2 2 2 2 2 2 2 2 2 2
left_child=1 14 8 4 5 22 7 11 19 24 25 17 13 21 15 -1 -17 18 -6 20 -2 -11 -3 -24 -10 -9 27 29 -29 -18
right_child=2 3 -4 -5 6 -7 -8 10 9 12 -12 -13 -14 -15 -16 16 26 -19 -20 -21 -22 -23 23 -25 -26 -27 -28 28 -30 -31
leaf_value=-0.056167712007606244 0.0042594655293349253 -0.033952882076132361 -0.059831010818915425 0.1155313873830825 0.026422366178118717 0.1155313873830825 -0.062574168444348169 0.049557414946987975 0.081428115313660787 0.018459068736810105 -0.017709597079364443 -0.070350696823894929 0.063715444961925119 0.07593456357583947 -0.066323694350108306 0.070353890912290523 -0.049252254011974833 0.040295031384725045 -0.05468180296678013 0.0011842644479988108 0.071966684127221445 -0.070350696823894901 0.096467999381888103 0.014805209042882331 0.1155313873830825 0.11701608378046023 -0.060431778907999847 -0.026925885584244802 0.066101381620361332 -0.015755548463172953
leaf_weight=129.15658782422543 8.7498727887868899 5.1569498777389517 35.823944211006165 21.84788453578949 5.2794173806905773 25.775594115257263 11.692885279655455 5.7061489820480409 35.119890481233597 5.2374206781387311 5.4094750434160224 13.158078193664549 125.51642133295536 5.0316219627857199 70.251359939575195 11.854656040668486 126.26086765527725 12.560542613267897 9.0125245451927167 15.652945041656492 15.528092607855795 5.1398742944002151 6.3161775469779995 24.028300791978836 27.493967056274414 11.990961506962774 36.51171138882637 8.260170117020607 8.4834179580211639 31.046239629387856
leaf_count=617 39 24 172 89 23 105 56 24 146 23 25 64 529 21 340 50 593 54 43 70 65 25 26 106 112 49 174 37 38 146
internal_value=-0.000113518 -0.0229028 0.0471925 0.0403808 0.0283158 0.0614888 0.00114378 0.012948 0.0629398 0.069523 0.0688166 -0.0193169 0.0575801 0.00760327 -0.0465967 -0.0426548 -0.0348079 0.00569039 -0.0247221 0.0293836 0.0475647 -0.0255284 0.0222515 0.0318032 0.096403 0.0952651 -0.0407285 -0.0365953 0.0202079 -0.0426413
internal_weight=859.054 579.76 279.294 157.935 136.087 61.277 74.81 63.1171 243.47 203.539 23.1066 40.0106 140.925 15.4089 421.825 351.574 222.417 26.8525 14.2919 39.9309 24.278 10.3773 35.5014 30.3445 62.6139 17.6971 210.562 174.051 16.7436 157.307
internal_count=3885 2683 1202 688 599 261 338 282 1030 856 98 184 598 69 1995 1655 1038 120 66 174 104 48 156 132 258 73 988 814 75 739
is_linear=0
shrinkage=0.05


Tree=4
num_leaves=31
num_cat=0
split_feature=2 1 2 0 0 0 0 0 0 1 1 0 0 1 0 0 0 0 0 0 1 0 0 1 0 0 0 0 0 0
split_gain=334.463 318.75 168.769 50.5278 43.6621 45.9479 20.7737 40.7983 19.1268 18.8952 23.1197 18.6774 15.1238 12.6999 14.2204 50.7286 12.4851 20.7453 20.3195 15.0654 27.2252 20.2801 29.7509 20.7649 10.1717 10.1661 9.5137 9.32498 18.6385 16.1462
threshold=2015.5000000000002 4.5000000000000009 2021.5000000000002 176.50000000000003 69.500000000000014 42.500000000000007 165.50000000000003 131.50000000000003 117.50000000000001 1.0000000180025095e-35 1.5000000000000002 161.50000000000003 37.500000000000007 2.5000000000000004 78.500000000000014 88.500000000000014 69.500000000000014 82.500000000000014 104.50000000000001 124.50000000000001 4.5000000000000009 155.50000000000003 180.50000000000003 2.5000000000000004 106.50000000000001 99.500000000000014 207.50000000000003 191.50000000000003 182.50000000000003 112.50000000000001
decision_type=2 2 2 2 2 2 2 2 2 2 2 2 2 2 2 2 2 2 2 2 2 2 2 2 2 2 2 2 2 2
left_child=1 13 9 4 5 -3 7 8 25 -2 -11 -9 -12 14 -1 -16 -14 -18 -19 20 -20 -21 23 -23 -17 -6 -24 28 29 -26
right_child=2 3 -4 -5 6 -7 -8 11 -10 10 12 -13 16 -15 15 24 17 18 19 21 -22 22 26 -25 27 -27 -28 -29 -30 -31
leaf_value=-0.054650349846099233 0.027740542991016377 0.021053214004285829 -0.058326862775925636 0.10838143485095116 -0.023776875791146828 0.10838143485095116 -0.061065578321398056 0.08933581828480712 -0.068968210521359707 0.090334217999771371 0.021182528489803055 -0.016937791644126302 0.093745829006810777 -0.064878549022814674 0.044775122164799036 -0.067391295207432131 -0.020090152244721202 0.12432862994005817 0.094619623319189272 0.10829398270250989 -0.053051615472776731 -0.078896936838708853 0.10539313926965355 0.033453562740817774 0.047229772101077594 0.037879497583668653 0.031094016035444868 -0.058900455234650151 0.019059464292348286 -0.041276313719572973
leaf_weight=126.18150310218334 40.166584268212318 35.630695313215256 34.933112144470215 22.116936713457108 14.129696786403658 26.093015223741531 11.390368342399595 17.92143185436726 12.760815620422362 63.455797225236893 28.096361115574837 5.3740933537483206 24.523587673902512 68.275577425956726 18.877328619360924 30.811795204877853 8.655383884906767 11.059657186269758 5.0489739328622809 17.011842131614685 8.1745292246341688 6.0349667668342599 14.993447452783586 12.911238759756088 5.4024484008550635 12.689959734678267 6.0457449406385413 35.610881209373474 16.846755191683769 111.62312144041061
leaf_count=617 174 156 172 89 66 105 56 73 64 258 122 25 102 340 82 149 36 46 21 70 34 26 62 54 25 54 25 174 75 533
internal_value=-0.000136624 -0.0220924 0.0445181 0.0382923 0.0268933 0.0579703 0.00106481 0.0123201 -0.0185789 0.059112 0.0652285 0.0648193 0.0540532 -0.0451741 -0.0412786 -0.0335802 0.062122 0.0534989 0.0613352 0.0514139 0.00333195 0.062569 0.0431152 -0.00233363 -0.040965 0.00539639 0.0840428 -0.0361608 -0.0301119 -0.0371905
internal_weight=852.848 571.736 281.111 158.107 135.99 61.7237 74.2664 62.876 39.5805 246.178 206.012 23.2955 142.556 413.629 345.354 219.172 114.459 89.9358 81.2804 70.2207 13.2235 56.9972 39.9854 18.9462 200.295 26.8197 21.0392 169.483 133.872 117.026
internal_count=3885 2683 1202 688 599 261 338 282 184 1030 856 98 598 1995 1655 1038 476 374 338 292 55 237 167 80 956 120 87 807 633 558
is_linear=0
shrinkage=0.05


Tree=5
num_leaves=31
num_cat=0
split_feature=2 1 2 0 0 0 0 0 0 1 1 0 0 1 1 0 0 1 0 0 0 1 0 0 0 0 0 0 1 0
split_gain=302.521 292.529 151.722 45.0903 38.943 41.2394 19.1966 36.6677 17.9461 16.8259 20.666 16.5828 13.8743 12.4229 12.3235 13.6147 34.4519 20.9589 9.78412 14.1847 9.14099 8.77005 12.053 9.45072 8.16959 7.57321 7.42267 18.7541 42.363 22.5662
threshold=2015.5000000000002 4.5000000000000009 2021.5000000000002 176.50000000000003 69.500000000000014 42.500000000000007 165.50000000000003 131.50000000000003 117.50000000000001 1.0000000180025095e-35 1.5000000000000002 161.50000000000003 22.500000000000004 4.5000000000000009 2.5000000000000004 76.500000000000014 88.500000000000014 1.0000000180025095e-35 106.50000000000001 112.50000000000001 99.500000000000014 1.0000000180025095e-35 32.500000000000007 64.500000000000014 79.500000000000014 12.500000000000002 132.50000000000003 151.50000000000003 1.5000000000000002 136.50000000000003
decision_type=2 2 2 2 2 2 2 2 2 2 2 2 2 2 2 2 2 2 2 2 2 2 2 2 2 2 2 2 2 2
left_child=1 14 9 4 5 -3 7 8 20 -2 -11 -9 13 25 15 21 17 -17 -18 -20 24 22 -1 -24 -6 -12 -21 28 29 -28
right_child=2 3 -4 -5 6 -7 -8 11 -10 10 12 -13 -14 -15 -16 16 18 -19 19 26 -22 -23 23 -25 -26 -27 27 -29 -30 -31
leaf_value=-0.068994690524316005 0.02616015763528648 0.019882622566925474 -0.056905299923598801 0.10238478817593917 0.026270190900172959 0.10238478817593917 -0.059648673590026381 0.08408379759384238 -0.067704105954582469 0.08503422797281715 0.016277568064486152 -0.016196969060631488 0.056272490502834629 0.069799429128210577 -0.063535806814184387 -0.06978921485418195 -0.065951113912997558 0.046094368839288358 0.044096117209640254 -0.061240580752453921 0.035656702779293219 -0.059147523075458265 0.066752615744625557 -0.034820543491575505 -0.052517316590281804 -0.069374292852482519 0.051591596505244711 -0.043779670687820481 0.097276217462232084 -0.057820173478826814
leaf_weight=6.9829498976469067 40.455748677253723 35.836555525660515 34.038320243358612 22.23792889714241 5.2834060341119793 26.235758811235428 11.085652589797972 18.08416518568993 12.359300613403319 64.024103671312332 5.2978745847940427 5.3397960960865012 128.33641266822815 5.1206198483705512 66.283207535743713 4.8646713495254543 29.932728499174118 19.712840333580971 5.4945673793554297 27.53143997490406 12.803924113512037 101.55204279720783 4.7883085012435895 4.3892827928066254 8.7215439826250059 5.031977966427803 6.1553652584552792 99.278891608119011 8.3224618434905988 20.107526510953903
leaf_count=35 174 156 172 89 23 105 56 73 64 258 23 25 529 21 340 24 149 85 25 134 54 509 24 22 43 25 30 480 40 98
internal_value=-0.000156813 -0.0213258 0.0420892 0.0363881 0.0255768 0.0547534 0.000996048 0.0117368 -0.017858 0.0556617 0.0614049 0.0612235 0.0508834 0.00612039 -0.0438176 -0.0399634 -0.0326584 0.0231573 -0.0396281 -0.0349069 0.0051218 -0.0537032 -0.0194914 0.0181741 -0.0227945 -0.025446 -0.0375965 -0.0327337 -0.00102581 -0.0321768
internal_weight=845.689 563.384 282.305 157.988 135.75 62.0723 73.6778 62.5921 39.1682 248.267 207.811 23.424 143.787 15.4505 405.396 339.113 221.4 24.5775 196.823 166.89 26.8089 117.713 16.1605 9.17759 14.005 10.3299 161.396 133.864 34.5854 26.2629
internal_count=3885 2683 1202 688 599 261 338 282 184 1030 856 98 598 69 1995 1655 1065 109 956 807 120 590 81 46 66 48 782 648 168 128
is_linear=0
shrinkage=0.05


Tree=6
num_leaves=31
num_cat=0
split_feature=2 1 2 0 0 0 0 0 0 1 1 0 0 1 0 0 1 0 0 0 0 0 0 1 0 0 0 0 0 0
split_gain=274.181 268.778 136.752 40.5958 34.8525 37.4132 17.7592 33.0666 16.8527 15.0856 18.7096 14.8155 12.2266 11.9805 13.0667 43.4739 11.1568 8.2385 7.5431 7.21149 9.0098 7.09079 6.85908 6.78298 11.7922 6.4125 6.52426 6.40916 6.27572 21.1058
threshold=2015.5000000000002 4.5000000000000009 2021.5000000000002 176.50000000000003 69.500000000000014 42.500000000000007 165.50000000000003 131.50000000000003 117.50000000000001 1.0000000180025095e-35 1.5000000000000002 161.50000000000003 22.500000000000004 2.5000000000000004 78.500000000000014 84.500000000000014 4.5000000000000009 99.500000000000014 79.500000000000014 134.50000000000003 84.500000000000014 12.500000000000002 113.50000000000001 5.5000000000000009 24.500000000000004 33.500000000000007 30.500000000000004 135.50000000000003 191.50000000000003 182.50000000000003
decision_type=2 2 2 2 2 2 2 2 2 2 2 2 2 2 2 2 2 2 2 2 2 2 2 2 2 2 2 2 2 2
left_child=1 13 9 4 5 23 7 8 17 19 22 27 16 14 -1 -16 21 18 -6 20 -2 -12 -11 -3 -25 26 -26 -9 29 -17
right_child=2 3 -4 -5 6 -7 -8 11 -10 10 12 -13 -14 -15 15 28 -18 -19 -20 -21 -22 -23 -24 24 25 -27 -28 -29 -30 -31
leaf_value=-0.051877834200866606 0.0013014970538424086 -0.034213177701282405 -0.055556328579105432 0.097286820156348958 0.024769738014148085 0.097286820156348958 -0.058312294734958782 0.03677524136935862 -0.066545136703660079 0.0660590091302872 0.015392370498444991 -0.015485914563534273 0.052992266741673302 -0.062283320254945609 0.060299110953598183 -0.038788786083082422 0.065647456221155961 0.033603864664411391 -0.051101968098038603 -0.0015669354431518253 0.064124094243187366 -0.068075778927139619 0.09899064538988829 0.087888508769336682 0.022867934643370065 0.037014779964692275 -0.05082579004150526 0.10012385864378957 -0.056408751107198091 0.020453309700684257
leaf_weight=120.27069500088692 8.9075828343629855 5.1704117059707633 33.144381821155548 22.232694372534752 5.3222462236881283 26.229583248496056 10.780499577522276 5.9233152866363588 11.9560489654541 36.328965425491333 5.3217862844467145 5.3065955638885489 129.43638077378273 64.286080300807953 12.220577150583265 149.6984731554985 5.1708692461252204 12.904111862182615 8.5201011747121793 15.924717783927916 15.884824767708777 4.8755291849374771 27.997089385986328 6.434040009975436 5.9653719067573565 12.406869530677794 6.0487227737903595 12.249981015920637 34.014866352081299 16.712718337774277
leaf_count=617 39 24 172 89 23 105 56 24 64 146 23 25 529 340 50 739 21 54 43 70 65 25 112 26 26 53 27 49 174 75
internal_value=-0.00017512 -0.0206082 0.039873 0.0346745 0.0243797 0.0518608 0.000931725 0.0112028 -0.0171966 0.0525325 0.0579537 0.0580143 0.047986 -0.0425222 -0.0387064 -0.0312567 0.00582137 0.00486288 -0.02193 0.0246884 0.0415528 -0.0245153 0.0803921 0.0187869 0.0276681 0.0118022 -0.0142346 0.0794763 -0.0368392 -0.0328391
internal_weight=837.646 554.654 282.992 157.451 135.218 62.255 72.9629 62.1824 38.7025 249.848 209.131 23.4799 144.805 397.203 332.917 212.647 15.3682 26.7465 13.8423 40.7171 24.7924 10.1973 64.3261 36.0254 30.855 24.421 12.0141 18.1733 200.426 166.411
internal_count=3885 2683 1202 688 599 261 338 282 184 1030 856 98 598 1995 1655 1038 69 120 66 174 104 48 258 156 132 106 53 73 988 814
is_linear=0
shrinkage=0.05


Tree=7
num_leaves=31
num_cat=0
split_feature=2 1 2 0 0 0 0 0 0 0 1 1 1 0 0 1 0 0 0 0 0 1 0 0 1 0 0 1 1 0
split_gain=248.966 247.164 123.613 36.7937 31.3797 34.1354 16.4849 25.4293 19.0038 15.8449 13.5461 17.1544 11.676 12.5017 30.0153 18.1038 11.1663 10.7165 18.2028 17.4499 13.2076 23.9919 17.7752 26.0713 18.5075 9.58436 13.2271 8.74275 8.63349 11.5318
threshold=2015.5000000000002 4.5000000000000009 2021.5000000000002 176.50000000000003 69.500000000000014 42.500000000000007 166.50000000000003 131.50000000000003 161.50000000000003 117.50000000000001 1.0000000180025095e-35 1.5000000000000002 2.5000000000000004 76.500000000000014 88.500000000000014 1.0000000180025095e-35 37.500000000000007 69.500000000000014 82.500000000000014 104.50000000000001 124.50000000000001 4.5000000000000009 155.50000000000003 180.50000000000003 2.5000000000000004 106.50000000000001 112.50000000000001 3.5000000000000004 1.0000000180025095e-35 32.500000000000007
decision_type=2 2 2 2 2 2 2 2 2 2 2 2 2 2 2 2 2 2 2 2 2 2 2 2 2 2 2 2 2 2
left_child=1 12 10 4 5 -3 7 9 -9 -6 -2 -12 13 28 15 -15 -13 -18 -19 -20 21 -21 -22 24 -24 -16 -27 -25 29 -1
right_child=2 3 -4 -5 6 -7 -8 8 -10 -11 11 16 -14 14 25 -17 17 18 19 20 22 -23 23 27 -26 26 -28 -29 -30 -31
leaf_value=-0.066832084220049548 0.023371898068303219 0.01782234723140267 -0.054271263422492333 0.092903125392327299 0.0046198896665338709 0.092903125392327299 -0.06659201838616978 0.075530725111397801 -0.018170913233026737 -0.065479973350795695 0.076338099991789435 0.017140531696742303 -0.061110621489086317 -0.067627403278975581 -0.063866436136190433 0.042314283721484845 0.080984374713722829 -0.024206332013387531 0.10884476053422831 0.081782023184471322 0.094884732433658914 -0.055307952416298149 -0.07978793783798499 0.044984421358554842 0.02557754486870208 0.043749978665470174 -0.035110183551497511 0.1093509078510157 -0.056622657559969952 0.020128758517632392
leaf_weight=6.594865769147872 40.850312054157257 36.052742198109627 32.255423307418823 22.120162039995193 26.669404432177544 26.096820384263992 8.0443936884403211 18.166849091649059 7.7065222263336173 11.553223609924315 64.354426771402359 28.287496298551559 62.294358909130096 4.6117623299360302 28.513126343488693 19.909581705927849 25.26287904381752 8.7908268570899946 11.424062728881834 5.2016181349754325 17.4375319480896 8.2586445510387403 6.0828806459903726 12.403213754296303 13.236629068851471 5.5046807974576941 156.19095352292061 9.1802761405706406 96.376279965043068 9.0355265736579877
leaf_count=35 174 156 172 89 120 105 43 73 38 64 258 122 340 24 149 85 102 36 46 21 70 34 26 50 54 25 782 37 509 46
internal_value=-0.000186594 -0.0199309 0.0378641 0.0331512 0.0233089 0.049349 0.000875144 0.00934264 0.0476212 -0.0165686 0.0497151 0.0548414 -0.0412726 -0.0374903 -0.0304266 0.0216374 0.0453378 0.052139 0.0442195 0.0514471 0.0423147 -0.00233055 0.0526152 0.0345951 -0.0075975 -0.0371386 -0.0324255 0.0723619 -0.0510323 -0.0165623
internal_weight=828.467 545.441 283.026 156.41 134.29 62.1496 72.1404 64.096 25.8734 38.2226 250.771 209.92 389.031 326.737 214.73 24.5213 145.566 117.279 92.0157 83.2249 71.8008 13.4603 58.3405 40.903 19.3195 190.209 161.696 21.5835 112.007 15.6304
internal_count=3885 2683 1202 688 599 261 338 295 111 184 1030 856 1995 1655 1065 109 598 476 374 338 292 55 237 167 80 956 807 87 590 81
is_linear=0
shrinkage=0.05


Tree=8
num_leaves=31
num_cat=0
split_feature=2 1 2 0 0 0 0 0 1 1 1 0 0 0 0 0 0 0 1 0 0 1 0 0 0 0 0 0 1 0
split_gain=226.36 227.387 111.988 33.627 28.5044 20.458 34.2701 24.8762 12.3327 15.7281 11.3977 12.0698 37.2515 10.0832 9.47171 16.3836 15.5302 11.8618 21.6673 15.9183 24.2101 24.3443 10.98 9.28583 12.0767 7.73667 7.30159 18.2012 38.3987 21.4295
threshold=2015.5000000000002 4.5000000000000009 2021.5000000000002 176.50000000000003 161.50000000000003 135.50000000000003 79.500000000000014 42.500000000000007 1.0000000180025095e-35 1.5000000000000002 2.5000000000000004 78.500000000000014 88.500000000000014 37.500000000000007 69.500000000000014 82.500000000000014 104.50000000000001 124.50000000000001 4.5000000000000009 155.50000000000003 173.50000000000003 2.5000000000000004 165.50000000000003 106.50000000000001 112.50000000000001 69.500000000000014 132.50000000000003 151.50000000000003 1.5000000000000002 136.50000000000003
decision_type=2 2 2 2 2 2 2 2 2 2 2 2 2 2 2 2 2 2 2 2 2 2 2 2 2 2 2 2 2 2
left_child=1 10 8 4 5 6 7 -3 -2 -10 11 -1 -13 -11 -15 -16 -17 18 -18 -19 22 -22 -21 -14 -25 -9 -26 28 29 -28
right_child=2 3 -4 -5 -6 -7 -8 25 9 13 -12 12 23 14 15 16 17 19 -20 20 21 -23 -24 24 26 -27 27 -29 -30 -31
leaf_value=-0.049340794567892893 0.022085241771020461 0.016855392819868115 -0.053042542154697406 0.089096839041632001 -0.041661544067396021 0.092049284745679055 -0.014083952198298342 0.089096839041631987 0.072660634252887699 0.016224472652245588 -0.060008584147973998 0.037076445597457319 -0.062678614930431989 0.076447505886551137 -0.023086631672976917 0.10277607929627096 0.077199727972386514 0.08982261112771639 -0.053087485130689185 0.012422564009655529 -0.0050019973183657983 0.090977713211370784 -0.085523139754298469 0.040940556189614452 -0.058103542118931907 0.023113096671241187 0.053207236257218238 -0.040226517614846989 0.095196885899534317 -0.054561528772489321
leaf_weight=114.42240427434444 41.063015505671501 36.210755839943886 31.374958574771881 21.916795387864113 15.419918268918989 12.158608451485632 38.474645555019379 25.856893435120586 64.233297437429428 28.387756243348122 60.316722095012665 19.282108411192894 27.623405918478966 25.419517278671265 8.7571946382522565 11.491609364747999 5.2339178770780554 17.49732032418251 8.1759756803512555 7.0477371960878354 10.158554822206499 18.894789412617683 4.8170685172080994 5.5861108005046836 25.909561067819595 5.3640054166316977 6.0968787968158749 94.381554394960403 8.401572108268736 18.950477540493011
leaf_count=617 174 156 172 89 81 49 185 105 258 122 340 82 149 102 36 46 21 70 34 29 42 76 20 25 134 23 30 480 40 98
internal_value=-0.000196671 -0.019276 0.0360219 0.0316966 0.0222721 0.0306222 0.0235701 0.0450544 0.047147 0.0520449 -0.0400683 -0.0363174 -0.0290917 0.0429675 0.0494289 0.0419698 0.0488076 0.040173 -0.00223603 0.0499085 0.0328405 0.0574182 -0.027343 -0.0359163 -0.0312764 0.0777603 -0.0339004 -0.0289947 0.00269768 -0.0283291
internal_weight=818.925 536.372 282.553 155.402 133.485 118.065 105.906 67.4317 251.178 210.115 380.971 320.654 206.232 145.881 117.494 92.0742 83.317 71.8254 13.4099 58.4155 40.9181 29.0533 11.8648 186.95 159.326 31.2209 153.74 127.83 33.4489 25.0474
internal_count=3885 2683 1202 688 599 518 469 284 1030 856 1995 1655 1038 598 476 374 338 292 55 237 167 118 49 956 807 128 782 648 168 128
is_linear=0
shrinkage=0.05


Tree=9
num_leaves=31
num_cat=0
split_feature=2 1 2 0 0 0 0 0 1 1 1 0 0 0 1 0 0 0 0 0 0 0 1 1 0 0 0 0 0 1
split_gain=206.089 209.358 101.664 30.9389 25.9625 18.7602 30.9988 23 11.2963 14.4868 11.1273 11.5336 34.2914 9.418 9.9958 10.3913 7.28356 6.88475 6.41465 8.01488 6.14471 20.5025 13.1553 10.057 17.394 29.4349 6.40572 30.8403 6.55915 6.07172
threshold=2015.5000000000002 4.5000000000000009 2021.5000000000002 176.50000000000003 161.50000000000003 135.50000000000003 79.500000000000014 42.500000000000007 1.0000000180025095e-35 1.5000000000000002 2.5000000000000004 78.500000000000014 84.500000000000014 22.500000000000004 4.5000000000000009 8.5000000000000018 69.500000000000014 113.50000000000001 134.50000000000003 84.500000000000014 191.50000000000003 182.50000000000003 1.0000000180025095e-35 1.5000000000000002 151.50000000000003 139.50000000000003 134.50000000000003 129.50000000000003 88.500000000000014 5.5000000000000009
decision_type=2 2 2 2 2 2 2 2 2 2 2 2 2 2 2 2 2 2 2 2 2 2 2 2 2 2 2 2 2 2
left_child=1 10 8 4 5 6 7 29 18 17 11 -1 -13 14 15 -11 -9 -10 19 -2 21 23 -23 26 25 -25 27 28 -14 -3
right_child=2 3 -4 -5 -6 -7 -8 16 9 13 -12 12 20 -15 -16 -17 -18 -19 -20 -21 -22 22 -24 24 -26 -27 -28 -29 -30 -31
leaf_value=-0.048114045561532925 -0.0010383443566302267 -0.034230492322184614 -0.051863577453687838 0.085764106757201142 -0.040415009271938439 0.088351477973029169 -0.013445402642195953 0.085764106757201128 0.055092843641432035 0.032303717658129082 -0.058969245253791852 0.052402704124412475 0.0040407431412559499 0.045168577615100521 0.060083008262453524 -0.069507707367472277 0.021825671252385943 0.088230741357946285 -0.0037278823557432826 0.057820647120716932 -0.053378346832241332 -0.022521178221883206 0.067073306870789801 -0.066539450705472278 -0.045337667962721179 0.087142165639509508 -0.055436630798620261 0.092852483794169771 -0.047575163663687151 0.024267797812484858
leaf_weight=111.54641807079315 9.0263282507658023 5.1713047027587882 30.505958139896393 21.636961176991463 15.108747974038122 12.037063613533972 38.291572913527489 25.52675195038319 36.444629579782486 4.4526836127042753 58.360541462898254 12.418752908706663 6.995306357741355 130.50996035337448 5.221443146467208 5.7330958396196365 5.3955503255128852 27.50178599357605 16.128704845905304 16.100367680191994 31.879253089427948 7.9573323130607614 8.4456874132156372 4.8507970422506359 15.523536205291746 8.7106955051422101 50.40553317964077 4.6188497692346564 51.231393426656723 31.184702664613724
leaf_count=617 39 24 172 89 81 49 185 105 146 19 340 50 32 529 21 29 23 112 70 65 174 37 38 26 80 40 264 23 274 132
internal_value=-0.000205097 -0.018649 0.0343281 0.0303235 0.0212849 0.0292113 0.0224682 0.0429085 0.0447986 0.0495005 -0.0389175 -0.0351976 -0.0281014 0.0408041 0.00383352 -0.0250011 0.0746077 0.0693446 0.0208805 0.0366766 -0.0333463 -0.0293232 0.0236098 -0.0354233 -0.00919722 0.0321719 -0.0421587 -0.0315091 -0.0413741 0.015947
internal_weight=808.922 527.297 281.625 154.353 132.716 117.607 105.57 67.2783 251.119 209.864 372.944 314.584 203.037 145.917 15.4072 10.1858 30.9223 63.9464 41.2554 25.1267 190.618 158.739 16.403 142.336 29.085 13.5615 113.251 62.8455 58.2267 36.356
internal_count=3885 2683 1202 688 599 518 469 284 1030 856 1995 1655 1038 598 69 48 128 258 174 104 988 814 75 739 146 66 593 329 306 156
is_linear=0
shrinkage=0.05


Tree=10
num_leaves=31
num_cat=0
split_feature=2 1 2 0 0 0 0 0 1 0 0 1 0 0 0 0 0 1 1 0 1 0 0 1 0 0 0 0 1 0
split_gain=187.796 192.955 92.3856 28.6025 23.6757 17.2976 28.1073 21.3472 10.8506 10.9957 23.7014 15.2039 10.4838 12.4128 21.3947 15.3151 12.9133 11.2146 16.5219 10.6769 19.5329 14.5449 21.7526 21.8927 10.013 8.90074 11.4929 8.87089 8.77386 11.3362
threshold=2015.5000000000002 4.5000000000000009 2021.5000000000002 176.50000000000003 161.50000000000003 135.50000000000003 79.500000000000014 42.500000000000007 2.5000000000000004 76.500000000000014 88.500000000000014 1.0000000180025095e-35 32.500000000000007 63.500000000000007 82.500000000000014 100.50000000000001 75.500000000000014 1.0000000180025095e-35 1.5000000000000002 124.50000000000001 4.5000000000000009 155.50000000000003 173.50000000000003 2.5000000000000004 165.50000000000003 106.50000000000001 112.50000000000001 70.500000000000014 1.0000000180025095e-35 32.500000000000007
decision_type=2 2 2 2 2 2 2 2 2 2 2 2 2 2 2 2 2 2 2 2 2 2 2 2 2 2 2 2 2 2
left_child=1 8 12 4 5 6 7 -3 9 28 11 -11 -2 -14 16 -16 27 -17 -19 20 -20 -21 24 -24 -23 -12 -27 -15 29 -1
right_child=2 3 -4 -5 -6 -7 -8 -9 -10 10 25 -13 13 14 15 17 -18 18 19 21 -22 22 23 -25 -26 26 -28 -29 -30 -31
leaf_value=-0.064282000395261427 0.018553496218767434 0.015108448234314259 -0.050728562800107881 0.082824680986761143 -0.03920605290665892 0.085108439525095989 -0.012833903075318526 0.071778685005811749 -0.057985598542653199 -0.065980387426476536 -0.060731296992273046 0.037056764658172037 0.07294467859158961 -0.010645596571737468 0.086052594433768406 0.013314442290021128 -0.053298372125284571 0.07958254998894064 0.070852870934555875 0.083317573735155109 -0.052774175002066909 0.0094546478303012219 -0.0069796096321243922 0.083824989356715507 -0.084132535356354232 0.041361666441437919 -0.031768754091109158 0.072675026177792729 -0.053328077008983399 0.024824365230506046
leaf_weight=6.048509180545806 38.393304020166397 36.444996029138565 29.650918364524841 21.293202638626099 14.803756222128866 11.874965861439703 38.11488188803196 30.545454666018486 56.432043612003326 4.3545417487621334 26.036549657583237 20.133714213967323 37.747466444969177 7.2663034051656741 22.425690352916718 28.057570904493332 8.5041375458240491 30.861779317259789 5.2498244494199744 17.446937412023544 8.1632215380668622 7.1046571284532529 10.210982277989389 18.968476533889771 4.7815807163715363 5.5739901959896079 148.61355896294117 5.7007012814283371 88.942167788743973 8.7083056867122632
leaf_count=35 163 156 172 89 81 49 185 128 340 24 149 85 152 30 90 118 35 127 21 70 34 29 42 76 20 25 782 23 509 46
internal_value=-0.000213058 -0.0180594 0.0327348 0.0290562 0.0203685 0.0279076 0.0214449 0.0409482 -0.0378277 -0.0341392 -0.0274198 0.0187345 0.042599 0.0469437 0.041327 0.0478752 -0.00541714 0.0413319 0.0489797 0.0358487 -0.00438693 0.0450721 0.0288233 0.0520491 -0.0281935 -0.0336911 -0.029125 0.0259848 -0.047404 -0.0116985
internal_weight=798.454 517.921 280.534 153.077 131.784 116.98 105.105 66.9905 364.843 308.411 204.712 24.4883 250.883 212.489 174.742 153.271 21.4711 130.845 102.787 71.9257 13.413 58.5126 41.0657 29.1795 11.8862 180.224 154.188 12.967 103.699 14.7568
internal_count=3885 2683 1202 688 599 518 469 284 1995 1655 1065 109 1030 867 715 627 88 537 419 292 55 237 167 118 49 956 807 53 590 81
is_linear=0
shrinkage=0.05


Tree=11
num_leaves=31
num_cat=0
split_feature=2 1 2 0 0 0 0 0 0 1 0 0 0 0 0 0 0 1 1 0 1 0 0 1 0 0 0 0 0 0
split_gain=171.327 177.73 84.1512 26.5887 21.8605 12.3875 25.8921 23.4475 14.6173 10.6205 10.6136 29.0989 9.64222 11.0526 19.4331 13.8604 11.7327 10.3628 15.4384 9.65802 17.7408 13.2753 19.9166 16.0207 8.66537 8.51758 8.37395 8.03093 7.41828 14.8233
threshold=2015.5000000000002 4.5000000000000009 2021.5000000000002 176.50000000000003 165.50000000000003 69.500000000000014 42.500000000000007 131.50000000000003 117.50000000000001 2.5000000000000004 78.500000000000014 84.500000000000014 32.500000000000007 63.500000000000007 82.500000000000014 100.50000000000001 75.500000000000014 1.0000000180025095e-35 1.5000000000000002 124.50000000000001 4.5000000000000009 155.50000000000003 180.50000000000003 2.5000000000000004 207.50000000000003 161.50000000000003 99.500000000000014 70.500000000000014 26.500000000000004 22.500000000000004
decision_type=2 2 2 2 2 2 2 2 2 2 2 2 2 2 2 2 2 2 2 2 2 2 2 2 2 2 2 2 2 2
left_child=1 9 12 4 5 6 -3 8 26 10 -1 -12 28 -14 16 -16 27 -17 -19 20 -20 -21 23 -23 -24 -9 -7 -15 29 -2
right_child=2 3 -4 -5 -6 7 -8 25 -10 -11 11 -13 13 14 15 17 -18 18 19 21 -22 22 24 -25 -26 -27 -28 -29 -30 -31
leaf_value=-0.045838434528143873 0.012862061414758914 0.014303646900484883 -0.049632408497757331 0.08021552838885232 -0.053422814950475961 -0.022420556084637125 0.080551134433873003 0.065576841922061799 -0.063925253048754627 -0.057051443775868488 0.047667043440474247 -0.031214946484405662 0.069323199978139238 -0.010123796187601907 0.08212885887421445 0.012616387618615089 -0.051050971616838164 0.076736595227338944 0.067424541108885502 0.079665118841884555 -0.050713222088953826 -0.077703576153902623 0.080462215658959946 0.020961613032035371 0.010617454883648104 -0.0085173876112857472 0.033726009224466814 0.069231487051949245 -0.02665875493483465 0.10533280918305617
leaf_weight=105.94505521655083 25.664238557219509 36.567561566829681 28.811915278434753 20.896488800644875 9.5338114500045759 13.688600912690164 24.719709008932114 17.643071964383129 10.90455913543701 54.536436796188354 12.483754009008406 184.16267837584019 37.733380109071732 7.2589727491140383 22.324525445699692 28.127615094184875 8.4363096952438337 30.417193219065666 5.2410954236984244 17.337108254432678 8.0725376307964307 5.9526247829198846 15.428759232163431 13.32227885723114 6.235518902540206 4.9717068672180167 12.89829897880554 5.6853772103786469 7.6025493741035453 5.2144418060779563
leaf_count=617 111 156 172 89 56 66 105 73 64 340 50 988 152 30 90 118 35 127 21 70 34 26 62 54 25 25 54 23 31 21
internal_value=-0.000216565 -0.0174761 0.0312834 0.0278402 0.0194809 0.0252065 0.041024 0.0090782 -0.0151761 -0.0367412 -0.0330806 -0.0262073 0.0406067 0.044794 0.0394697 0.0457301 -0.00517117 0.0394859 0.046895 0.0342159 -0.00420666 0.0429938 0.027464 -0.00950893 0.0603592 0.0492877 0.00481824 0.0247304 0.0175845 0.0284775
internal_weight=787.818 508.952 278.866 151.824 130.927 121.394 61.2873 60.1062 37.4915 357.128 302.591 196.646 250.055 211.573 173.84 152.459 21.3807 130.135 102.007 71.5899 13.3136 58.2763 40.9392 19.2749 21.6643 22.6148 26.5869 12.9443 38.4812 30.8787
internal_count=3885 2683 1202 688 599 543 261 282 184 1995 1655 1038 1030 867 715 627 88 537 419 292 55 237 167 80 87 98 120 53 163 132
is_linear=0
shrinkage=0.05


Tree=12
num_leaves=31
num_cat=0
split_feature=2 1 2 0 0 0 0 0 0 1 0 0 0 0 0 0 0 1 1 0 0 0 1 0 0 1 0 0 0 0
split_gain=156.486 163.693 76.7838 24.7659 20.1109 11.231 24.3739 21.3519 13.7816 10.4228 10.192 27.1889 8.89508 9.88498 17.6944 12.6288 10.671 9.61949 14.4723 8.85617 10.6383 8.75632 16.1403 12.179 18.8013 19.9484 7.77754 7.542 7.29076 7.19031
threshold=2015.5000000000002 4.5000000000000009 2021.5000000000002 176.50000000000003 165.50000000000003 69.500000000000014 42.500000000000007 131.50000000000003 117.50000000000001 2.5000000000000004 78.500000000000014 88.500000000000014 32.500000000000007 63.500000000000007 82.500000000000014 100.50000000000001 75.500000000000014 1.0000000180025095e-35 1.5000000000000002 106.50000000000001 112.50000000000001 124.50000000000001 4.5000000000000009 155.50000000000003 173.50000000000003 3.5000000000000004 161.50000000000003 99.500000000000014 70.500000000000014 132.50000000000003
decision_type=2 2 2 2 2 2 2 2 2 2 2 2 2 2 2 2 2 2 2 2 2 2 2 2 2 2 2 2 2 2
left_child=1 9 12 4 5 6 -3 8 27 10 -1 -12 -2 -14 16 -16 28 -17 -19 -13 -21 22 -20 -23 -25 -26 -9 -7 -15 -22
right_child=2 3 -4 -5 -6 7 -8 26 -10 -11 11 19 13 14 15 17 -18 18 21 20 29 23 -24 24 25 -27 -28 -29 -30 -31
leaf_value=-0.044719345969414202 0.016687188289385844 0.013545539937139462 -0.048570633885643595 0.077886434758593151 -0.052372766328811785 -0.021485962834102697 0.078186717675332709 0.06285303162009255 -0.063062930685088545 -0.056161290550886069 0.030830329100702786 -0.059246617013174241 0.066043980932166915 -0.0096275632606207459 0.078642242815473121 0.011957471972732937 -0.048944745400740113 0.074170876768661659 0.064310230531488349 0.040718325019559048 -0.0546370448749278 0.076402929602174693 -0.048773296700926401 -0.027078786702047282 0.010096437095329487 0.093431162273613422 -0.00812368556686297 0.031815236898575135 0.066104332786280709 -0.024591684856501563
leaf_weight=103.2358922958374 38.518718883395195 36.680446356534958 27.990650713443756 20.456408113241196 9.2460489571094495 13.572838321328165 24.206825941801071 17.49109156429768 10.510958671569822 52.678027451038361 19.432055696845055 24.719730794429779 37.628927946090698 7.251655727624895 22.152741506695747 28.191997826099396 8.3612935245037061 29.908740445971489 5.2206420600414258 5.5924933403730384 23.865905523300171 17.177420854568481 7.9763987362384796 11.772213786840437 15.850424140691757 13.129744276404381 4.9525216221809378 12.986926943063734 5.6572932153940201 120.21963609755039
leaf_count=617 163 156 172 89 56 66 105 73 64 340 82 149 152 30 90 118 35 127 21 25 134 70 34 49 65 53 25 54 23 648
internal_value=-0.000217366 -0.0169188 0.0299435 0.0267573 0.0186899 0.0241471 0.0392448 0.0087011 -0.0146017 -0.0356639 -0.0320291 -0.0252702 0.0387766 0.0428229 0.0377619 0.0437619 -0.0049405 0.0377826 0.0449886 -0.0315211 -0.0269422 0.0327175 -0.00403837 0.0410909 0.0262066 0.047852 0.0471909 0.00457672 0.0235616 -0.0295683
internal_weight=776.637 499.848 276.789 150.104 129.648 120.402 60.8873 59.5143 37.0707 349.744 297.066 193.83 248.798 210.279 172.651 151.38 21.2702 129.228 101.036 174.398 149.678 71.1268 13.197 57.9298 40.7524 28.9802 22.4436 26.5598 12.9089 144.086
internal_count=3885 2683 1202 688 599 543 261 282 184 1995 1655 1038 1030 867 715 627 88 537 419 956 807 292 55 237 167 118 98 120 53 782
is_linear=0
shrinkage=0.05


Tree=13
num_leaves=31
num_cat=0
split_feature=2 1 2 0 0 0 0 0 0 0 0 1 1 0 0 2 2 1 1 0 0 0 0 0 0 0 0 0 1 0
split_gain=143.06 151.133 70.1355 17.4012 21.1738 10.036 18.4612 16.6389 10.6097 9.74899 21.9028 8.27952 11.7585 8.06862 18.7764 13.4976 16.184 8.36937 12.9298 23.2322 18.411 13.1225 13.2582 7.66768 6.06286 10.9262 11.3582 7.94052 14.7053 11.3741
threshold=2015.5000000000002 5.5000000000000009 2021.5000000000002 180.50000000000003 161.50000000000003 69.500000000000014 140.50000000000003 42.500000000000007 24.500000000000004 32.500000000000007 35.500000000000007 1.0000000180025095e-35 1.5000000000000002 191.50000000000003 176.50000000000003 2007.5000000000002 2003.5000000000002 1.5000000000000002 2.5000000000000004 76.500000000000014 151.50000000000003 139.50000000000003 95.500000000000014 37.500000000000007 69.500000000000014 82.500000000000014 104.50000000000001 124.50000000000001 4.5000000000000009 145.50000000000003
decision_type=2 2 2 2 2 2 2 2 2 2 2 2 2 2 2 2 2 2 2 2 2 2 2 2 2 2 2 2 2 2
left_child=1 9 11 4 5 7 -7 8 -3 -1 -11 -2 -13 14 17 16 -16 -12 19 -19 21 22 -21 -14 -25 -26 -27 28 -28 -29
right_child=2 3 -4 -5 -6 6 -8 -9 -10 10 13 12 23 -15 15 -17 -18 18 -20 20 -22 -23 -24 24 25 26 27 29 -30 -31
leaf_value=-0.053083770153947635 0.01671416354057461 0.077544295451338424 -0.047539274485046322 0.075796891569171049 -0.035876480465524468 -0.0020380940390130548 0.078357835227944761 0.076066841704268848 0.0058667454301433997 0.079164482731278574 -0.04088293057488205 0.05949642571892072 0.010231387762195654 -0.052865945911677217 -0.0085295548886206614 -0.02252163722427096 0.099183319808021642 -0.04782148751055984 -0.044017263087492015 0.03564292701635343 -0.065658247708675802 0.087177392620016309 -0.063556417409355775 0.060800507594968273 -0.020431327137262031 0.085562425078365756 0.061461149210672542 0.085247551179813474 -0.046940346180326886 0.028545195110419565
leaf_weight=53.28405025601387 41.575867503881454 6.499751657247546 27.188508689403534 17.287226334214211 13.898329958319662 38.330031409859657 8.7752964198589307 23.651405498385429 25.09671588242054 4.5348734110593787 140.04336389899254 61.440227091312408 28.670036062598228 38.659204363822937 7.0419142395257968 15.954588219523428 6.908562645316124 20.274246364831924 37.223832160234451 14.893835008144384 5.2666265666484824 8.7093400955200178 4.3526110202074042 25.209632813930511 8.6313509941101056 11.172569185495375 5.1902658641338331 10.913087725639341 7.8760461211204529 46.65027217566967
leaf_count=327 174 26 172 77 81 183 38 105 106 27 805 258 122 235 35 81 35 126 239 62 29 40 26 102 36 46 21 45 34 192
internal_value=-0.000218044 -0.0163886 0.0286859 0.0289918 0.0220316 0.0298949 0.0129389 0.0443518 0.0206116 -0.0333565 -0.0298972 0.0370653 0.0411775 -0.0315495 -0.0283882 0.00888901 0.0448121 -0.033219 -0.0213882 -0.00564261 0.0200974 0.036253 0.0132089 0.0333784 0.039117 0.0330724 0.0387178 0.0313077 -0.00388056 0.0392951
internal_weight=765.204 490.686 274.518 133.539 116.252 102.353 47.1053 55.2479 31.5965 357.147 303.863 247.329 205.753 299.328 260.669 29.9051 13.9505 230.764 90.7205 53.4967 33.2224 27.9558 19.2464 144.313 115.643 90.4336 81.8022 70.6297 13.0663 57.5634
internal_count=3885 2683 1202 616 539 458 221 237 132 2067 1740 1030 856 1713 1478 151 70 1327 522 283 157 128 88 598 476 374 338 292 55 237
is_linear=0
shrinkage=0.05


Tree=14
num_leaves=31
num_cat=0
split_feature=2 1 2 0 0 1 0 0 0 0 0 0 0 1 0 0 0 0 0 0 0 0 0 0 0 1 1 0 0 0
split_gain=130.735 140.2 64.0543 21.8769 17.7516 10.3072 9.90466 21.6484 16.6188 13.0115 9.69679 18.7539 9.11067 8.77024 15.3953 27.7575 9.774 10.7543 7.9287 8.44342 15.6266 11.2782 9.21186 7.82036 29.2179 7.35763 8.24663 7.86745 6.70861 6.59542
threshold=2015.5000000000002 4.5000000000000009 2021.5000000000002 176.50000000000003 166.50000000000003 2.5000000000000004 69.500000000000014 42.500000000000007 131.50000000000003 117.50000000000001 32.500000000000007 38.500000000000007 161.50000000000003 1.5000000000000002 151.50000000000003 78.500000000000014 139.50000000000003 83.500000000000014 32.500000000000007 63.500000000000007 82.500000000000014 92.500000000000014 75.500000000000014 182.50000000000003 187.50000000000003 1.0000000180025095e-35 1.5000000000000002 113.50000000000001 99.500000000000014 26.500000000000004
decision_type=2 2 2 2 2 2 2 2 2 2 2 2 2 2 2 2 2 2 2 2 2 2 2 2 2 2 2 2 2 2
left_child=1 5 18 4 6 10 7 -3 9 28 -1 -12 -10 23 15 -15 17 -17 29 -20 22 -22 -21 -13 -25 -23 27 -27 -8 -2
right_child=2 3 -4 -5 -6 -7 8 -9 12 -11 11 13 -14 14 -16 16 -18 -19 19 20 21 25 -24 24 -26 26 -28 -29 -30 -31
leaf_value=-0.053050115026701018 0.024837085912114559 0.012342267509451457 -0.046534835985896854 0.074170005320455409 -0.061933803132878253 -0.054736389439421274 -0.02020575797496954 0.074157555687428142 0.059314935123327098 -0.062147223380015909 0.072301918832898437 -0.039739270639311791 -0.008603108464243784 -0.040394776323599127 -0.044713866922561379 0.050553823480664818 0.08033465018657894 -0.030497382831587441 0.060860932332114204 0.020804876617254511 0.085180112932749769 0.013982583661374923 -0.046919692502073659 0.067872180582756528 -0.039711197736956007 0.015194611128639669 0.033085427309909952 0.076191184549674315 0.030153082701008044 -0.027143194470027311
leaf_weight=39.474078804254532 30.974383890628815 36.707267329096794 26.406581044197083 19.543440729379654 6.6890102326869956 49.592369914054871 13.39794071018696 23.062240853905678 17.144237935543064 10.062578797340391 4.7244444489479056 136.9495300501585 6.9349550753831855 19.939967811107635 25.401171967387199 9.4958103597164207 8.9714157581329328 7.1926442235708228 37.202928587794304 12.808751568198206 12.776361212134359 29.575846210122108 8.2583422213792783 8.4112917482852918 25.274554073810577 6.6851971000432995 74.844293713569641 25.265836954116821 13.05974569916725 7.5997310578823081
leaf_count=254 132 156 172 89 43 340 66 105 73 64 27 805 38 124 147 38 40 38 152 53 53 123 35 38 144 28 311 112 54 31
internal_value=-0.000220431 -0.0158672 0.0274676 0.0249214 0.0173462 -0.0336941 0.0217519 0.0361939 0.00750769 -0.0137536 -0.0300433 -0.026357 0.0397541 -0.0282859 -0.0135188 0.0038583 0.0382468 0.0156211 0.0354116 0.0392827 0.0345664 0.0402602 -0.00574329 -0.0344305 -0.0128478 0.0360517 0.0421635 0.0634287 0.00465181 0.0145961
internal_weight=754.427 482.029 272.398 146.601 127.058 335.427 120.369 59.7695 60.5995 36.5203 285.835 246.361 24.0792 241.636 71.001 45.5998 25.6599 16.6885 245.992 207.418 170.215 149.148 21.0671 170.635 33.6858 136.371 106.795 31.951 26.4577 38.5741
internal_count=3885 2683 1202 688 599 1995 556 261 295 184 1655 1401 111 1374 387 240 116 76 1030 867 715 627 88 987 182 574 451 140 120 163
is_linear=0
shrinkage=0.05


Tree=15
num_leaves=31
num_cat=0
split_feature=2 1 2 0 0 1 0 0 0 0 0 0 0 1 0 0 0 0 0 0 0 0 0 0 0 1 1 0 0 1
split_gain=119.506 129.314 58.4956 20.5561 16.4587 10.0722 9.36708 16.7949 9.01638 20.5714 15.1681 12.2855 8.35562 8.17214 14.3009 25.2715 8.38228 9.74049 7.36564 26.3489 7.31499 7.72662 14.2133 10.7863 12.8085 11.3336 9.50945 10.9103 17.2108 14.325
threshold=2015.5000000000002 4.5000000000000009 2021.5000000000002 176.50000000000003 166.50000000000003 2.5000000000000004 32.500000000000007 38.500000000000007 69.500000000000014 42.500000000000007 131.50000000000003 117.50000000000001 161.50000000000003 1.5000000000000002 151.50000000000003 78.500000000000014 139.50000000000003 83.500000000000014 182.50000000000003 187.50000000000003 32.500000000000007 63.500000000000007 82.500000000000014 109.50000000000001 124.50000000000001 1.0000000180025095e-35 1.5000000000000002 155.50000000000003 180.50000000000003 2.5000000000000004
decision_type=2 2 2 2 2 2 2 2 2 2 2 2 2 2 2 2 2 2 2 2 2 2 2 2 2 2 2 2 2 2
left_child=1 5 20 4 8 6 -1 -8 9 -3 11 -10 -12 18 15 -15 17 -17 -9 -20 -2 -22 -23 -24 -25 -26 -27 -28 29 -29
right_child=2 3 -4 -5 -6 -7 7 13 10 -11 12 -13 -14 14 -16 16 -18 -19 19 -21 21 22 23 24 25 26 27 28 -30 -31
leaf_value=-0.052136373561844154 0.013847295866241546 0.011695903807855394 -0.045554238138457777 0.072442870815951854 -0.061217120430717989 -0.053941899792304952 0.066073812772497506 -0.038624269139017293 0.0044217305479834273 0.072430909743328664 0.057048006369039075 -0.061415342694563252 -0.0082100114420894845 -0.039336348706947605 -0.043585794095931552 0.048109730362019709 0.07443636744677859 -0.029284774035094382 0.063046289914589437 -0.038564180851015303 0.058285017711165156 -0.0054839640606580064 0.064343153247618329 -0.009460815813558298 0.0049170532254200604 0.074269768472681852 0.069958742821095418 -0.077143871342032572 0.052824943973296581 0.016323360994741739
leaf_weight=38.190301448106766 38.623058170080185 36.796701610088348 25.645711004734039 19.022120386362076 6.4353777021169654 47.850920453667641 4.9062966853380194 133.93533706665039 26.418567299842834 22.446998655796051 16.939444392919544 9.6829838156700117 6.904450222849845 19.464873492717743 24.771801427006721 9.4796808958053642 9.1921371221542341 7.1178906559944144 8.5973117947578412 24.738764479756355 36.912076786160469 20.977893844246864 31.709972083568573 16.432130545377731 20.403829753398895 22.439423829317093 16.648906320333481 5.9133272618055353 21.347801059484482 13.363290756940842
leaf_count=254 163 156 172 89 43 340 27 805 120 105 73 64 38 124 147 38 40 38 38 144 152 88 132 70 86 102 70 26 87 54
internal_value=-0.000222792 -0.0153834 0.0262893 0.024004 0.0166694 -0.0327401 -0.0291219 -0.025493 0.0208747 0.0347079 0.00720335 -0.0132368 0.0381513 -0.0273862 -0.0130455 0.00367192 0.0361326 0.014919 -0.0333898 -0.012359 0.0338166 0.037558 0.0330372 0.0384878 0.0314532 0.0381684 0.0466796 0.0358699 0.0218995 -0.0123488
internal_weight=743.309 472.892 270.417 144.647 125.625 328.245 280.394 242.204 119.189 59.2437 59.9454 36.1016 23.8439 237.298 70.0264 45.2546 25.7897 16.5976 167.271 33.3361 244.772 206.149 169.237 148.259 116.549 100.117 79.7127 57.2733 40.6244 19.2766
internal_count=3885 2683 1202 688 599 1995 1655 1401 556 261 295 184 111 1374 387 240 116 76 987 182 1030 867 715 627 495 425 339 237 167 80
is_linear=0
shrinkage=0.05


Tree=16
num_leaves=31
num_cat=0
split_feature=2 1 2 0 0 0 0 0 0 0 0 2 2 0 0 0 0 1 0 0 0 1 0 0 1 1 0 0 0 0
split_gain=109.403 119.582 53.5332 14.4367 17.3925 12.711 13.2267 8.9907 18.4 7.3831 15.9329 12.1895 14.3554 7.90188 34.076 10.1649 22.648 18.7807 18.8094 7.9369 28.3299 8.80498 7.32467 11.7588 6.96044 10.7027 6.57636 6.83642 6.53644 7.10642
threshold=2015.5000000000002 5.5000000000000009 2021.5000000000002 180.50000000000003 109.50000000000001 116.50000000000001 166.50000000000003 32.500000000000007 35.500000000000007 191.50000000000003 176.50000000000003 2007.5000000000002 2003.5000000000002 151.50000000000003 150.50000000000003 132.50000000000003 142.50000000000003 1.5000000000000002 136.50000000000003 87.500000000000014 78.500000000000014 1.0000000180025095e-35 37.500000000000007 24.500000000000004 1.0000000180025095e-35 1.5000000000000002 69.500000000000014 80.500000000000014 42.500000000000007 52.500000000000007
decision_type=2 2 2 2 2 2 2 2 2 2 2 2 2 2 2 2 2 2 2 2 2 2 2 2 2 2 2 2 2 2
left_child=1 7 24 4 22 -6 -7 -1 -9 10 13 12 -12 14 15 19 17 18 -17 20 -10 -21 23 -3 -2 -26 -24 -28 -27 -30
right_child=2 3 -4 -5 5 6 -8 8 9 -11 11 -13 -14 -15 -16 16 -18 -19 -20 21 -22 -23 26 -25 25 28 27 -29 29 -31
leaf_value=-0.050498658725168115 0.0138002122287956 0.072609469249088177 -0.044594745940873752 0.07065266451998907 -0.070115690785721607 0.019286105742746997 -0.060551038089697064 0.070327455040993095 -0.041566795608426355 -0.050223026450257217 -0.0086454404179627502 -0.021803921321529571 0.092926732383831145 -0.052605062523020024 0.13327438125265353 0.06353091968395598 -0.046859604353391773 0.10874622854822741 -0.062932973173955173 -0.021903835390762096 0.028693803110672413 -0.059746148599042419 0.062491297487529324 -0.0053826893609135486 0.054134192144125126 0.009539816485377656 -0.0089918858346300281 0.060669432126433359 0.083603388518442484 0.031417539491992087
leaf_weight=48.661486506462097 41.767778307199478 6.4870826900005367 24.906529068946838 15.928677111864088 6.3255766034126273 32.118341222405434 6.187146693468093 4.7507565319538108 57.064235389232635 35.482953488826752 6.8848529905080813 15.487663507461546 7.0311044305562973 34.100465774536133 3.2818301618099204 5.728180333971979 16.426609203219414 5.7688065469264975 6.0410654097795486 22.939407631754875 19.165597349405289 46.592146009206772 28.120753899216652 18.951862022280693 58.995262369513512 33.626204207539558 8.20294041931629 6.1718987673521033 6.9711320400238028 101.60962717235088
leaf_count=327 174 26 172 77 26 166 43 27 375 235 35 81 35 211 14 30 100 25 37 143 82 310 131 80 258 142 38 29 29 427
internal_value=-0.000223448 -0.0149144 0.0252179 0.0260998 0.0197954 -0.00445256 0.00639072 -0.0306269 -0.0272546 -0.0288986 -0.0258291 0.00871196 0.0426744 -0.0305071 -0.0263896 -0.029305 -0.00467174 0.0348425 -0.00138205 -0.035045 -0.023902 -0.0472615 0.0357256 0.0145058 0.0323743 0.0362301 0.0484283 0.0209175 0.0288025 0.034768
internal_weight=731.778 463.901 267.877 128.494 112.566 44.6311 38.3055 335.407 286.746 281.995 246.512 29.4036 13.916 217.108 183.008 179.726 33.9647 17.5381 11.7692 145.761 76.2298 69.5316 67.9345 25.4389 242.97 201.202 42.4956 14.3748 142.207 108.581
internal_count=3885 2683 1202 616 539 235 209 2067 1740 1713 1478 151 70 1327 1116 1102 192 92 67 910 457 453 304 106 1030 856 198 67 598 456
is_linear=0
shrinkage=0.05


Tree=17
num_leaves=31
num_cat=0
split_feature=2 1 2 0 0 1 0 0 0 0 0 0 0 0 0 0 0 0 0 0 2 2 0 0 0 1 1 0 1 1
split_gain=99.9869 110.398 48.8991 18.5569 14.1544 9.75662 8.74887 14.4632 7.8939 15.3008 14.9699 9.70515 11.3379 7.6496 7.18837 15.4856 8.464 37.437 8.12891 15.5393 7.62691 10.1068 9.61844 23.2781 6.70912 8.78356 10.1474 8.52956 6.34143 6.16151
threshold=2015.5000000000002 4.5000000000000009 2021.5000000000002 176.50000000000003 166.50000000000003 2.5000000000000004 32.500000000000007 38.500000000000007 79.500000000000014 131.50000000000003 42.500000000000007 117.50000000000001 99.500000000000014 161.50000000000003 76.500000000000014 88.500000000000014 106.50000000000001 107.50000000000001 132.50000000000003 136.50000000000003 2007.5000000000002 2003.5000000000002 191.50000000000003 171.50000000000003 22.500000000000004 1.0000000180025095e-35 1.5000000000000002 17.500000000000004 5.5000000000000009 1.5000000000000002
decision_type=2 2 2 2 2 2 2 2 2 2 2 2 2 2 2 2 2 2 2 2 2 2 2 2 2 2 2 2 2 2
left_child=1 5 24 4 8 6 -1 -8 10 11 -3 12 -10 -11 -9 -16 -17 -18 -19 -20 21 -21 23 -23 27 -26 -27 -2 -4 -22
right_child=2 3 28 -5 -6 -7 7 14 9 13 -12 -13 -14 -15 15 16 17 18 19 20 29 22 -24 -25 25 26 -28 -29 -30 -31
leaf_value=-0.050405431304332129 0.022568094867381931 0.010422889646390574 -0.057516955005119087 0.069680432823813573 -0.059931117016030704 -0.052574504234571877 0.059511340846298368 -0.043468158994656059 -0.046942619657663026 0.053801681525755887 0.059623174121048728 -0.060806757170909886 0.028971939997832669 -0.0087158238449007493 0.016494389967807731 -0.056007631562651372 0.15835907298492205 -0.052698662116797239 0.058524483295367469 -0.033096921690688029 -0.049598968161784905 -0.014231367256552954 -0.039561161606680141 0.10028751460921254 0.012618253813593215 0.057690622925745463 0.031045729218359561 -0.045603076047980327 0.0036223915388153474 -0.013461767836661063
leaf_weight=35.73884429037571 19.872535929083828 36.788608714938164 18.704645082354549 18.004567191004753 5.9447260051965705 44.756275951862335 5.090796932578086 45.571222528815269 7.8753060400486055 16.567710638046268 26.667586550116539 9.3393926024436933 13.099451541900633 6.9437140524387351 23.634380996227264 21.559537276625633 2.8086184114217749 23.651889115571976 5.9025350958108893 25.89772641658783 36.635107696056366 11.566819965839391 6.8389527648687354 7.1993776857852927 39.941578462719917 49.844742089509964 126.20985616743565 5.9659365862607947 5.4848207384347907 17.396901190280914
leaf_count=254 85 156 133 89 43 340 27 309 43 73 128 64 54 38 109 149 13 146 30 152 219 68 45 35 166 224 529 26 39 99
internal_value=-0.000228707 -0.0144536 0.0241268 0.0222651 0.0153373 -0.0309558 -0.0273655 -0.0238429 0.0191524 0.00506788 0.0310994 -0.0184095 0.000468612 0.0353382 -0.0256986 -0.0212758 -0.026874 -0.0223191 -0.0260756 -0.020425 -0.0248406 -0.0110731 0.0112024 0.0297021 0.0309065 0.0337869 0.0385895 0.00682781 -0.043654 -0.0379637
internal_weight=721.504 455.48 266.024 141.231 123.226 314.249 269.493 233.754 117.282 53.8256 63.4562 30.3142 20.9748 23.5114 228.663 183.092 159.457 137.898 135.089 111.437 105.535 51.5029 25.6052 18.7662 241.835 215.996 176.055 25.8385 24.1895 54.032
internal_count=3885 2683 1202 688 599 1995 1655 1401 556 272 284 161 97 111 1374 1065 956 807 794 648 618 300 148 103 1030 919 753 111 172 318
is_linear=0
shrinkage=0.05


Tree=18
num_leaves=31
num_cat=0
split_feature=2 1 2 0 0 0 0 0 0 0 0 2 2 0 0 0 0 1 0 0 0 1 0 0 0 0 0 1 1 1
split_gain=91.4162 101.999 44.6992 13.0136 15.024 12.0273 11.5839 8.43789 16.0731 6.93871 14.0804 9.78487 10.603 7.54778 30.4962 9.16274 19.8113 17.2328 15.7585 7.32702 24.8084 8.51555 6.70839 8.85808 8.24018 6.41941 6.3655 6.35825 8.94384 6.1203
threshold=2015.5000000000002 5.5000000000000009 2021.5000000000002 180.50000000000003 109.50000000000001 116.50000000000001 166.50000000000003 32.500000000000007 35.500000000000007 191.50000000000003 176.50000000000003 2007.5000000000002 2003.5000000000002 151.50000000000003 150.50000000000003 132.50000000000003 142.50000000000003 1.5000000000000002 136.50000000000003 87.500000000000014 78.500000000000014 1.0000000180025095e-35 42.500000000000007 24.500000000000004 69.500000000000014 1.0000000180025095e-35 80.500000000000014 1.0000000180025095e-35 1.5000000000000002 5.5000000000000009
decision_type=2 2 2 2 2 2 2 2 2 2 2 2 2 2 2 2 2 2 2 2 2 2 2 2 2 2 2 2 2 2
left_child=1 7 25 4 22 -6 -7 -1 -9 10 13 12 -12 14 15 19 17 18 -17 20 -10 -21 23 -3 -24 -2 -26 -27 -29 -4
right_child=2 3 29 -5 5 6 -8 8 9 -11 11 -13 -14 -15 -16 16 -18 -19 -20 21 -22 -23 24 -25 26 27 -28 28 -30 -31
leaf_value=-0.048837457116483567 -0.085241741709265503 0.068839935290213469 -0.056842455144659534 0.06794858487116244 -0.06855416668715017 0.018015497058906441 -0.059353415429368762 0.063981520016688345 -0.039740983739407064 -0.048579624966266832 -0.0073330735427662181 -0.019823164910670158 0.079237104229933283 -0.051024495519502555 0.12429709338239812 0.054121489497403245 -0.044880163178766239 0.10393138536859491 -0.061728615292407224 -0.020219376148326976 0.026319732141958721 -0.05833910393059364 0.068465321242842422 0.0032215539945546047 -0.0097719897259746433 0.012408995062060009 0.057285672074742423 0.050518265621077363 0.027057350555972831 0.00343282345827012
leaf_weight=45.743982061743736 1.2125307321548451 6.4520237445831325 17.998181357979778 14.966838926076887 6.2805052995681754 31.725946798920631 5.7084392160177222 4.9126399010419837 54.337417721748352 33.492216289043427 6.751002639532091 15.090263113379477 7.4293394386768341 32.368115916848183 3.3662199079990378 6.0593359172344226 15.643024533987044 5.7017484903335562 5.6935152262449265 22.129482328891754 19.245542824268341 43.349434152245522 20.681158527731895 25.352649867534637 8.1845259815454465 41.919727027416229 6.2349234968423835 57.174694895744324 140.32683852314949 5.4979674071073523
leaf_count=327 5 26 133 77 26 166 43 27 375 235 35 81 35 211 14 30 100 25 37 143 82 310 105 106 38 174 29 258 593 39
internal_value=-0.000233652 -0.0140166 0.0230866 0.0241914 0.0182711 -0.00452504 0.00621737 -0.0289504 -0.0256492 -0.027276 -0.0242675 0.00820062 0.0380226 -0.0288389 -0.0247478 -0.027662 -0.00401791 0.0326033 -0.00200058 -0.0332895 -0.0224629 -0.045456 0.0331658 0.0165332 0.0482366 0.029514 0.0192235 0.0300952 0.033849 -0.0427384
internal_weight=711.03 446.9 264.13 125.587 110.62 43.7149 37.4344 321.313 275.569 270.657 237.164 29.2706 14.1803 207.894 175.526 172.16 33.0976 17.4546 11.7529 139.062 73.583 65.4789 66.9053 31.8047 35.1006 240.634 14.4194 239.421 197.502 23.4961
internal_count=3885 2683 1202 616 539 235 209 2067 1740 1713 1478 151 70 1327 1116 1102 192 92 67 910 457 453 304 132 172 1030 67 1025 851 172
is_linear=0
shrinkage=0.05


Tree=19
num_leaves=31
num_cat=0
split_feature=2 1 2 0 0 1 0 0 0 0 0 0 0 0 0 0 0 0 0 0 2 2 0 0 0 0 0 0 0 0
split_gain=83.5585 94.3185 40.8652 16.8601 12.2182 9.4345 8.15667 34.5081 7.59016 13.2244 8.10283 32.8182 7.54295 43.3719 6.82319 13.3482 13.2442 9.36826 10.5982 7.02101 6.68611 8.74209 7.27677 19.9289 6.20811 7.15989 13.8611 10.6024 14.187 7.98195
threshold=2015.5000000000002 4.5000000000000009 2021.5000000000002 176.50000000000003 166.50000000000003 2.5000000000000004 32.500000000000007 35.500000000000007 76.500000000000014 88.500000000000014 106.50000000000001 107.50000000000001 132.50000000000003 134.50000000000003 79.500000000000014 42.500000000000007 131.50000000000003 117.50000000000001 99.500000000000014 161.50000000000003 2007.5000000000002 2003.5000000000002 191.50000000000003 171.50000000000003 32.500000000000007 63.500000000000007 82.500000000000014 92.500000000000014 93.500000000000014 73.500000000000014
decision_type=2 2 2 2 2 2 2 2 2 2 2 2 2 2 2 2 2 2 2 2 2 2 2 2 2 2 2 2 2 2
left_child=1 5 24 4 14 6 -1 -8 -9 -10 -11 -12 -13 -14 15 -3 17 18 -16 -18 21 -15 23 -23 -2 -26 29 -28 -29 -27
right_child=2 3 -4 -5 -6 -7 7 8 9 10 11 12 13 20 16 -17 19 -19 -20 -21 -22 22 -24 -25 25 26 27 28 -30 -31
leaf_value=-0.048763572001281237 0.0098139481300765271 0.0095362767035724483 -0.041844827200225553 0.067378484587059501 -0.058814416097322735 -0.05130054102003604 0.14915761364711563 -0.042740960398459954 0.014961261195980803 -0.054715244828967308 0.14437825514233832 -0.050897424634234301 0.16246246296656119 -0.032413664542118942 -0.045832105608795332 0.056619364393008888 0.050873622062126179 -0.060247834149135961 0.028147319259595172 -0.0091386145438294413 -0.03698034936564009 -0.016207190129513296 -0.037319992590907104 0.087339268157314146 0.051993655346408908 0.018574498135247974 0.077772199288212343 -0.14881535263972681 0.030254016622610028 -0.043276425520415052
leaf_weight=33.423725754022598 38.602455288171768 36.728330984711647 22.821417719125748 16.961826294660568 5.4785349369049063 41.836997225880623 2.8970005363225928 45.513205975294113 23.642364501953125 20.205928951501846 2.9429422020912162 22.362180098891258 3.1956763565540305 25.718489840626717 7.6772459596395555 25.507881641387939 16.169109299778942 9.0005427002906782 13.105090528726576 6.9766122549772254 53.149131402373314 12.008905544877058 6.4642353504896155 7.5797211527824393 35.753278210759163 11.014916837215425 12.02981676161289 1.1154983937740315 131.0594444423914 9.9085096269845945
leaf_count=254 163 156 172 89 43 340 13 323 109 149 13 146 15 156 43 128 73 64 54 38 325 72 45 35 152 46 53 5 569 42
internal_value=-0.000237189 -0.0135893 0.022086 0.020702 0.0141396 -0.029269 -0.0257116 -0.0222975 -0.0245271 -0.0198507 -0.0252081 -0.0207394 -0.0244636 -0.0189962 0.0176101 0.0288336 0.00441293 -0.0176361 0.000818427 0.0327847 -0.0245231 -0.0117343 0.00867972 0.0238596 0.0281782 0.0317072 0.0273148 0.0328329 0.0287427 -0.0107157
internal_weight=700.851 438.546 262.305 137.605 120.643 300.941 259.104 225.68 222.783 177.27 153.627 133.421 130.478 108.116 115.165 62.2362 52.9286 29.7829 20.7823 23.1457 104.92 51.7714 26.0529 19.5886 239.484 200.881 165.128 144.205 132.175 20.9234
internal_count=3885 2683 1202 688 599 1995 1655 1401 1388 1065 956 807 794 648 556 284 272 161 97 111 633 308 152 107 1030 867 715 627 574 88
is_linear=0
shrinkage=0.05


Tree=20
num_leaves=31
num_cat=0
split_feature=2 1 2 0 0 0 0 0 0 0 0 0 0 2 2 0 0 0 0 1 0 0 0 1 1 0 0 0 0 0
split_gain=76.4234 87.112 37.3607 11.7951 13.0458 11.3895 17.5378 11.0598 14.8972 7.88817 13.0905 6.50386 12.456 7.87371 7.99193 7.2489 27.7431 8.11601 33.6371 14.4175 16.5731 6.85974 21.6103 8.24013 6.09022 6.05292 8.08951 7.83621 5.95045 5.78506
threshold=2015.5000000000002 5.5000000000000009 2021.5000000000002 180.50000000000003 109.50000000000001 116.50000000000001 117.50000000000001 131.50000000000003 161.50000000000003 32.500000000000007 35.500000000000007 191.50000000000003 176.50000000000003 2007.5000000000002 2003.5000000000002 151.50000000000003 150.50000000000003 132.50000000000003 134.50000000000003 1.0000000180025095e-35 142.50000000000003 87.500000000000014 78.500000000000014 1.0000000180025095e-35 5.5000000000000009 42.500000000000007 24.500000000000004 69.500000000000014 80.500000000000014 22.500000000000004
decision_type=2 2 2 2 2 2 2 2 2 2 2 2 2 2 2 2 2 2 2 2 2 2 2 2 2 2 2 2 2 2
left_child=1 9 29 4 25 -6 -7 -8 -9 -1 -11 12 15 14 -14 16 17 21 -19 -20 -21 22 -12 -23 -4 26 -3 -27 -29 -2
right_child=2 3 24 -5 5 6 7 8 -10 10 11 -13 13 -15 -16 -17 -18 18 19 20 -22 23 -24 -25 -26 27 -28 28 -30 -31
leaf_value=-0.047248867888009707 0.0045795122850662857 0.065474471725687142 -0.055742519975132403 0.065676835294824779 -0.06706386983777067 0.1133202275821787 -0.05994790510410905 0.045861363708045978 -0.030084200467359868 0.054989377096312866 -0.037833790063882197 -0.046984430885949488 -0.0060738472389385637 -0.017898544759215321 0.068837078023913548 -0.04956251594628322 0.11779585597143825 0.14559849629396759 -0.062776675067511098 0.067244367965700533 -0.03338737564718515 -0.018643079820856421 0.024178718710814857 -0.057072893887304681 0.0054671829535829757 0.066294207421473961 0.0025764016945488389 -0.010490780466734384 0.054259890646272561 0.029627146790370547
leaf_weight=42.993460230529308 25.858241528272629 6.3989876508712795 16.812850072979931 13.992479279637335 6.2315918505191794 3.451641082763671 7.1970907449722281 13.718037545681002 12.199481099843977 5.1231534779071799 51.605663813650608 31.582649625837803 6.6205592304468173 14.676198214292524 7.7029226422309875 30.739027090370655 3.420044630765914 3.3821942657232276 12.059763848781587 7.0545185059309032 9.7407942488789541 21.342298522591591 19.304201036691666 40.265252530574799 5.3591509759426108 19.464416205883026 25.416204050183296 8.1559371799230558 6.2803194373846045 212.43992871046066
leaf_count=327 111 26 133 77 26 14 52 62 81 27 375 235 35 81 35 211 14 15 77 35 65 143 82 310 39 105 106 38 29 919
internal_value=-0.000241132 -0.0131848 0.021133 0.0224716 0.0169004 -0.0045822 0.00606588 -0.00511358 0.0101135 -0.0273849 -0.0241576 -0.0257201 -0.0227735 0.0078398 0.034212 -0.0272366 -0.0231559 -0.0260818 -0.00358195 -0.0210679 0.00888088 -0.0315553 -0.0209518 -0.0437599 -0.0409476 0.0308911 0.0152271 0.0455916 0.0176782 0.0269092
internal_weight=690.589 430.119 260.47 122.506 108.514 42.7978 36.5663 33.1146 25.9175 307.613 264.619 259.496 227.913 28.9997 14.3235 198.914 168.175 164.755 32.2373 28.8551 16.7953 132.517 70.9099 61.6076 22.172 65.7159 31.8152 33.9007 14.4363 238.298
internal_count=3885 2683 1202 616 539 235 209 195 143 2067 1740 1713 1478 151 70 1327 1116 1102 192 177 100 910 457 453 172 304 132 172 67 1030
is_linear=0
shrinkage=0.05


Tree=21
num_leaves=31
num_cat=0
split_feature=2 1 2 0 0 1 0 0 0 0 0 0 2 2 1 0 0 0 1 1 1 0 0 0 0 0 0 0 0 0
split_gain=69.8451 80.8374 34.1444 15.3441 10.9043 9.08735 7.56611 28.6685 6.93179 11.313 7.73216 9.62057 6.17151 8.65295 6.39618 12.2566 6.25614 10.8038 5.87425 5.85447 9.93291 6.35184 5.80402 15.8737 9.87747 9.39207 5.77534 5.88947 5.19643 6.8175
threshold=2015.5000000000002 4.5000000000000009 2021.5000000000002 176.50000000000003 166.50000000000003 2.5000000000000004 32.500000000000007 35.500000000000007 76.500000000000014 88.500000000000014 106.50000000000001 112.50000000000001 2007.5000000000002 2003.5000000000002 1.0000000180025095e-35 160.50000000000003 191.50000000000003 177.50000000000003 5.5000000000000009 1.0000000180025095e-35 1.5000000000000002 113.50000000000001 69.500000000000014 42.500000000000007 135.50000000000003 161.50000000000003 73.500000000000014 23.500000000000004 42.500000000000007 52.500000000000007
decision_type=2 2 2 2 2 2 2 2 2 2 2 2 2 2 2 2 2 2 2 2 2 2 2 2 2 2 2 2 2 2
left_child=1 5 19 4 22 6 -1 -8 -9 -10 -11 -12 13 -13 15 -15 17 -16 -4 -2 21 26 23 -3 -24 -26 27 -21 -22 -30
right_child=2 3 18 -5 -6 -7 7 8 9 10 11 12 -14 14 16 -17 -18 -19 -20 20 28 -23 24 -25 25 -27 -28 -29 29 -31
leaf_value=-0.047189582787688422 0.008767752285781227 0.008738999824254837 -0.055149870861685914 0.065440305908442784 -0.058064647151032212 -0.050106558712513738 0.13084741821934595 -0.040970130000771168 0.013577932671407231 -0.053521420000047094 0.046192486623855097 -0.029902707469853747 -0.033192959707444174 -0.0089726107622475574 -0.021986998423938434 0.094707565198971916 -0.05966325715092146 0.071382274425278419 0.005174322917876957 0.015776390371777714 0.0050767084719626002 0.068188267257875246 -0.0081918062408090301 0.065249023075097654 0.069040111002814666 -0.0073434916195726178 0.005799729833428309 0.069873420199904057 0.076877770601941287 0.024386632085175056
leaf_weight=31.249535918235779 42.176426336169243 36.643281683325768 16.160389900207523 15.917925104498861 5.1428072825074187 39.114860072731972 3.0693695843219748 43.122857615351677 23.632618829607964 18.926404103636742 5.3739877492189398 30.164883330464363 62.499057650566101 6.3995620161294955 10.20281231403351 5.1398526430130005 4.750507876276969 4.4492478072643271 5.3788273930549613 8.1531551480293292 33.570485815405846 21.89891791343689 40.324959889054298 18.804133236408234 9.7817655503749865 6.8374491930007926 12.01290303468704 13.13910138607025 6.5941632539033881 99.876259163022041
leaf_count=254 174 156 133 89 43 340 13 323 109 149 25 192 402 41 64 29 35 19 39 34 142 112 208 105 49 38 54 58 29 427
internal_value=-0.000245165 -0.0128001 0.0201923 0.0193704 0.0131311 -0.0277022 -0.0241825 -0.0208804 -0.0230499 -0.018545 -0.0236776 -0.0192984 -0.0221457 -0.0108468 0.00773058 0.0372083 -0.0098009 0.00636554 -0.0400856 0.0256608 0.02931 0.0472723 0.0163888 0.0279035 0.00517681 0.0376145 0.0335195 0.0491588 0.0222293 0.0276376
internal_weight=680.509 421.548 258.961 133.452 117.534 288.096 248.981 217.731 214.662 171.539 147.906 128.98 123.606 61.1069 30.942 11.5394 19.4026 14.6521 21.5392 237.421 195.245 55.2041 112.392 55.4474 56.9442 16.6192 33.3052 21.2923 140.041 106.47
internal_count=3885 2683 1202 688 599 1995 1655 1401 1388 1065 956 807 782 380 188 70 118 83 172 1030 856 258 556 261 295 87 146 92 598 456
is_linear=0
shrinkage=0.05


Tree=22
num_leaves=31
num_cat=0
split_feature=2 1 2 0 0 0 0 0 0 0 2 2 1 0 0 1 0 0 0 0 0 1 0 1 1 0 0 0 0 0
split_gain=63.8878 74.7654 31.2754 10.6647 11.2602 10.319 15.812 10.2639 12.7279 7.35562 7.36456 14.0778 10.1033 8.87696 9.38432 6.59152 15.4938 15.9297 10.0727 5.70391 9.11581 5.66802 5.56792 5.78695 8.74768 6.25417 5.35605 5.56009 5.18214 5.29326
threshold=2015.5000000000002 5.5000000000000009 2021.5000000000002 180.50000000000003 109.50000000000001 116.50000000000001 117.50000000000001 131.50000000000003 161.50000000000003 12.500000000000002 2007.5000000000002 2003.5000000000002 1.0000000180025095e-35 160.50000000000003 134.50000000000003 1.5000000000000002 83.500000000000014 52.500000000000007 25.500000000000004 37.500000000000007 24.500000000000004 5.5000000000000009 1.0000000180025095e-35 1.0000000180025095e-35 1.5000000000000002 113.50000000000001 73.500000000000014 23.500000000000004 69.500000000000014 80.500000000000014
decision_type=2 2 2 2 2 2 2 2 2 2 2 2 2 2 2 2 2 2 2 2 2 2 2 2 2 2 2 2 2 2
left_child=1 9 22 4 19 -6 -7 -8 -9 -1 11 -11 13 14 -13 -14 17 18 -17 20 -3 -4 -2 -24 25 26 27 -25 -21 -30
right_child=2 3 21 -5 5 6 7 8 -10 10 -12 12 15 -15 -16 16 -18 -19 -20 28 -22 -23 23 24 -26 -27 -28 -29 29 -31
leaf_value=-0.057849426492747581 -0.082998422595372517 0.062441110821892569 -0.054581582790825506 0.063750385370880944 -0.064394218340734763 0.10700143696179405 -0.059292637557730281 0.043180277218303524 -0.028251622289952 -0.031696977536145698 -0.032091754143625376 0.035240845424793742 -0.031558900015889492 0.086277243730404185 -0.0621589252962104 0.063708856280231277 -0.025482998327476598 0.11706348838911924 -0.059318406089626491 0.054890665740533577 -0.0068000953077795405 0.0048981759702187216 0.0083224588638621949 0.015037476293569111 0.022096137094922811 0.066989654316851069 0.0055200955078052987 0.067872483226182376 -0.0096143609428663915 0.051328473301060322
leaf_weight=16.97817225754261 1.1975495517253865 6.331500411033633 15.528241753578188 13.025967776775358 6.1287392079830161 3.4850148856639853 6.8724366426467922 13.300508916378023 11.740924544632433 69.619388721883297 138.8806434199214 9.3739176243543643 22.400662660598755 5.3540631979703894 3.3592486977577201 3.1511427015066165 17.258172020316124 4.9582457989454269 3.5247004777193069 24.54783508181572 19.071429133415222 5.3974751830101004 42.210517480969429 8.126786947250368 138.36175738275051 21.194078356027603 11.990950226783751 12.85728834569454 8.1092414855957013 6.3554583936929694
leaf_count=145 5 26 133 77 26 14 52 62 81 483 970 60 156 29 22 22 123 30 27 131 80 39 174 34 593 112 54 58 38 29
internal_value=-0.000242959 -0.0124009 0.0193444 0.0210571 0.0158079 -0.00449386 0.00587691 -0.00516595 0.00968872 -0.0259005 -0.0239485 -0.0158121 0.000127511 0.0322587 0.00954495 -0.0112028 0.00457962 0.0491749 -0.00124687 0.0288961 0.0104578 -0.0392397 0.0245402 0.0250889 0.0287647 0.045798 0.0321775 0.0474104 0.0409022 0.0171625
internal_weight=670.692 413.827 256.865 118.969 105.943 41.5276 35.3989 31.9139 25.0414 294.858 277.88 139 69.3802 18.0872 12.7332 51.2929 28.8923 11.6341 6.67584 64.4155 25.4029 20.9257 235.939 234.741 192.531 54.1691 32.975 20.9841 39.0125 14.4647
internal_count=3885 2683 1202 616 539 235 209 195 143 2067 1922 952 469 111 82 358 202 79 49 304 106 172 1030 1025 851 258 146 92 198 67
is_linear=0
shrinkage=0.05


Tree=23
num_leaves=31
num_cat=0
split_feature=2 1 2 0 0 1 0 0 0 0 0 0 0 0 2 2 0 0 1 1 0 0 0 0 0 0 0 0 0 0
split_gain=58.3601 68.8603 28.645 14.1548 9.74179 9.02272 7.22046 25.4097 6.77893 13.7233 7.65972 8.7878 5.57536 12.6116 6.59742 7.52594 6.87425 12.0103 5.47065 5.38111 5.95976 11.5156 6.86354 5.09422 5.53417 15.1338 5.05677 7.42598 4.79629 5.69675
threshold=2015.5000000000002 4.5000000000000009 2021.5000000000002 176.50000000000003 166.50000000000003 2.5000000000000004 32.500000000000007 35.500000000000007 78.500000000000014 88.500000000000014 106.50000000000001 112.50000000000001 132.50000000000003 142.50000000000003 2007.5000000000002 2003.5000000000002 191.50000000000003 171.50000000000003 5.5000000000000009 5.5000000000000009 69.500000000000014 42.500000000000007 24.500000000000004 1.0000000180025095e-35 2.5000000000000004 4.5000000000000009 140.50000000000003 161.50000000000003 33.500000000000007 30.500000000000004
decision_type=2 2 2 2 2 2 2 2 2 2 2 2 2 2 2 2 2 2 2 2 2 2 2 2 2 2 2 2 2 2
left_child=1 5 23 4 19 6 -1 -8 -9 -10 -11 -12 -13 -14 15 -15 17 -17 -4 -3 21 22 -21 -2 -25 -26 -22 -28 29 -24
right_child=2 3 18 -5 -6 -7 7 8 9 10 11 12 13 14 -16 16 -18 -19 -20 20 26 -23 28 24 25 -27 27 -29 -30 -31
leaf_value=-0.045760099658939103 -0.080370181222170031 -0.019244932879292739 -0.054035123855379466 0.06387810667878964 -0.057397734352961 -0.049065726568110674 0.12175670785201009 -0.038479103892874462 0.022958668436621622 -0.052567675604733279 0.044722508370061823 -0.045934051062859443 0.026932996524859389 -0.030566096685448053 -0.036792705111171276 -0.014624666551995439 -0.034567501207248726 0.071646516622180065 0.0046376785560216975 0.059991942876176589 -0.0031522112334007564 0.06352278279267802 0.013224864379127402 0.09929558241767196 -0.1087255116561696 0.024436449756925212 0.067289920068781414 -0.0056859564270787246 0.022800304700151749 -0.054368259131346554
leaf_weight=29.332842864096165 1.1754319816827763 10.297094509005545 14.916522562503816 14.9250061661005 4.8277819380164138 36.906234912574291 3.145714968442916 45.496103040874004 19.280179888010025 17.902258850634098 5.4112624228000632 18.164977252483368 14.724731668829916 21.196102246642113 43.763417631387711 8.1447209119796806 6.0021595209836951 7.9937108904123297 5.4151501357555381 6.2622383534908321 36.500429958105087 17.594070285558701 6.2303307652473467 2.4139532446861258 2.153760462999343 228.80843982100487 7.2551534771919233 6.7103463411331177 13.014013364911078 6.2384119480848312
leaf_count=254 5 60 133 89 43 340 13 350 82 149 25 134 81 140 294 53 45 35 39 26 183 105 26 10 9 1006 38 38 53 27
internal_value=-0.000240313 -0.0119821 0.0185239 0.018069 0.0121202 -0.0260463 -0.0225146 -0.0192865 -0.0214188 -0.0166448 -0.0219731 -0.0176054 -0.0204162 -0.015864 -0.023099 -0.00927053 0.0111166 0.0281073 -0.0384082 0.0151684 0.0187189 0.0310759 0.0130928 0.0234589 0.0239819 0.0231947 0.00663788 0.0322254 0.00156762 -0.0205936
internal_weight=662.203 407.319 254.883 129.855 114.93 277.464 240.558 211.225 208.08 162.584 143.303 125.401 119.99 101.825 87.1001 43.3367 22.1406 16.1384 20.3317 110.102 99.805 49.3391 31.745 234.552 233.376 230.962 50.4659 13.9655 25.4828 12.4687
internal_count=3885 2683 1202 688 599 1995 1655 1401 1388 1038 956 807 782 648 567 273 133 88 172 556 496 237 132 1030 1025 1015 259 76 106 53
is_linear=0
shrinkage=0.05


Tree=24
num_leaves=31
num_cat=0
split_feature=2 1 2 0 0 1 0 2 2 1 1 0 0 0 1 2 2 1 1 0 0 0 0 0 0 0 0 0 0 0
split_gain=53.3036 63.5524 26.1983 13.4768 9.08609 8.7436 7.0695 6.22655 12.535 6.7492 11.0309 7.19286 8.82115 6.54589 5.28138 5.17792 8.77495 4.99698 9.2496 6.27397 5.04876 5.24812 4.80924 5.85408 5.20795 6.46631 4.77373 15.0712 8.54544 7.78512
threshold=2015.5000000000002 4.5000000000000009 2021.5000000000002 176.50000000000003 166.50000000000003 2.5000000000000004 12.500000000000002 2007.5000000000002 2003.5000000000002 1.0000000180025095e-35 1.5000000000000002 160.50000000000003 134.50000000000003 179.50000000000003 5.5000000000000009 2007.5000000000002 2003.5000000000002 1.0000000180025095e-35 1.5000000000000002 113.50000000000001 73.500000000000014 23.500000000000004 134.50000000000003 84.500000000000014 152.50000000000003 188.50000000000003 180.50000000000003 161.50000000000003 207.50000000000003 124.50000000000001
decision_type=2 2 2 2 2 2 2 2 2 2 2 2 2 2 2 2 2 2 2 2 2 2 2 2 2 2 2 2 2 2
left_child=1 5 17 4 15 6 -1 8 -8 11 -11 12 -10 -12 -4 16 -3 22 19 20 21 -19 23 -2 -24 -26 27 29 -28 -20
right_child=2 3 14 -5 -6 -7 7 -9 9 10 13 -13 -14 -15 -16 -17 -18 18 26 -21 -22 -23 24 -25 25 -27 28 -29 -30 -31
leaf_value=-0.057205794412339965 -0.01085320970739017 0.0061621073170626921 -0.05350819603832388 0.063027307038790406 -0.056985079316829369 -0.048416434217053689 -0.028347144373656569 -0.028086289170974228 0.034013527557746753 -0.030327278449223928 0.039728057064901449 0.077762692317400323 -0.061581412707897826 -0.037246383860684545 0.0043918483156660275 0.0037492931678109066 0.046464202978197547 0.013614707067724783 0.01562871082342044 0.065505575238338831 0.004068643726395072 0.065382869066578517 -0.047784561770105517 0.03893753967230415 0.046860745607432697 -0.033017208845950628 0.062304446289209531 -0.030274889768240561 -0.0088836848510812985 0.051081855618389682
leaf_weight=13.320192761719225 9.347666263580324 28.080395072698593 14.325232326984407 14.383866325020788 4.6247401386499396 35.565216317772865 55.063458263874054 111.09907656162977 9.3865249454975146 21.614372864365578 13.278114080429079 5.5411168634891501 3.2483366727828971 3.4873431324958792 5.4319051355123511 54.884050324559212 26.022210650146008 8.0671741068363207 83.623269528150558 20.228788584470749 11.875430539250372 12.453311443328856 6.7716941237449673 16.0215974599123 5.320616811513899 4.8369243741035461 14.369276925921442 15.792623236775396 5.9658297896385184 19.003271535038948
leaf_count=121 39 143 133 89 43 340 382 779 60 156 83 29 22 23 39 279 134 34 361 112 54 58 28 65 22 20 62 65 25 85
internal_value=-0.000240335 -0.0116166 0.0176971 0.0174299 0.011657 -0.025305 -0.0218227 -0.0197066 -0.0113659 0.00516731 -0.00671922 0.0302665 0.00943672 0.0237168 -0.0375895 0.0145698 0.0255466 0.0223715 0.0258089 0.0436578 0.0300156 0.0450314 0.006819 0.0205914 -0.0138197 0.00882362 0.0190394 0.0151962 0.0414196 0.0221935
internal_weight=653.034 399.599 253.435 127.995 113.611 271.604 236.039 222.718 111.619 56.5558 38.3798 18.176 12.6349 16.7655 19.7571 108.987 54.1026 233.677 191.379 52.6247 32.3959 20.5205 42.2985 25.3693 16.9292 10.1575 138.754 118.419 20.3351 102.627
internal_count=3885 2683 1202 688 599 1995 1655 1534 755 373 262 111 82 106 172 556 277 1030 856 258 146 92 174 104 70 42 598 511 87 446
is_linear=0
shrinkage=0.05


Tree=25
num_leaves=31
num_cat=0
split_feature=2 1 2 0 0 0 0 0 0 0 0 0 0 0 0 1 1 1 0 0 0 0 0 0 0 0 1 1 0 0
split_gain=48.702 58.5877 24.0374 9.33437 9.46921 9.4806 14.1827 9.65889 10.463 7.12774 23.4801 6.58746 14.95 6.6245 9.79536 6.91492 5.86643 8.32946 10.1359 13.2881 9.63216 6.77525 5.57836 5.2715 6.86823 6.33185 5.09954 4.96439 6.89823 30.2156
threshold=2015.5000000000002 5.5000000000000009 2021.5000000000002 180.50000000000003 109.50000000000001 116.50000000000001 117.50000000000001 131.50000000000003 161.50000000000003 32.500000000000007 34.500000000000007 52.500000000000007 54.500000000000007 191.50000000000003 182.50000000000003 1.0000000180025095e-35 1.5000000000000002 2.5000000000000004 151.50000000000003 76.500000000000014 176.50000000000003 139.50000000000003 81.500000000000014 42.500000000000007 69.500000000000014 24.500000000000004 5.5000000000000009 1.0000000180025095e-35 134.50000000000003 132.50000000000003
decision_type=2 2 2 2 2 2 2 2 2 2 2 2 2 2 2 2 2 2 2 2 2 2 2 2 2 2 2 2 2 2
left_child=1 9 -2 4 23 -6 -7 -8 -9 -1 -11 -12 -13 14 16 -16 27 18 19 -18 -19 22 -21 25 -25 -3 -4 28 29 -14
right_child=2 3 26 -5 5 6 7 8 -10 10 11 12 13 -15 15 -17 17 20 -20 21 -22 -23 -24 24 -26 -27 -28 -29 -30 -31
leaf_value=-0.043901022593624932 0.021430460171946709 0.057253917977776292 -0.052998672454689436 0.061363553993390753 -0.062583182262822917 0.10070150762694802 -0.058865471036905676 0.040083395386131218 -0.026129267040331833 0.11417643428762599 -0.05069533897643818 0.101482890245377 -0.020872296790949242 -0.043918021667360516 -0.019054831306490872 0.045464594061053805 -0.058296761514894616 -0.04175564522074432 -0.035442234564545774 0.054196537785233416 0.066793287051102074 0.065805910381968466 -0.0061496268986750771 0.062501419429048466 0.01558437089683727 0.00079766769912934714 0.0041597694847935142 -0.03947161977774466 -0.041675094720843048 0.13565197977092699
leaf_weight=37.274731554090977 231.84975111484528 6.1677275300025967 13.754278890788557 11.618601724505423 6.0466203093528739 3.4995724111795417 6.6504111438989666 12.807316765189173 11.170183926820753 3.1976954340934745 18.713945731520653 2.51206350326538 26.502416722476486 27.957512699067593 7.1690743267536172 9.8706617653369904 4.8531351983547237 24.141156114637855 12.384268417954443 5.641354486346251 2.2326881885528556 9.4112490564584714 11.923899993300436 16.797581762075428 14.563623219728468 25.49937017261982 5.4477895796298972 54.053480371832848 18.211445763707161 3.4891647547483435
leaf_count=327 1030 26 133 77 26 14 52 62 81 13 150 22 189 235 37 51 40 227 80 26 12 40 62 105 67 106 39 412 129 15
internal_value=-0.000236359 -0.0111951 0.016978 0.0188752 0.0140918 -0.00487857 0.00534539 -0.00555009 0.00923749 -0.0235464 -0.0204147 -0.0222149 -0.0197962 -0.0211947 -0.0178491 0.0183195 -0.0214147 -0.0103278 0.00293758 0.0178704 -0.0325664 0.031573 0.0132315 0.0261835 0.0407139 0.0117935 -0.0367823 -0.029068 -0.0174018 -0.00266255
internal_weight=645.413 394.361 251.052 114.821 103.202 40.1741 34.1275 30.6279 23.9775 279.54 242.265 239.068 220.354 217.842 189.884 17.0397 172.844 70.5878 44.2139 31.8296 26.3738 26.9765 17.5653 63.0283 31.3612 31.6671 19.2021 102.257 48.203 29.9916
internal_count=3885 2683 1202 616 539 235 209 195 143 2067 1740 1727 1577 1555 1320 88 1232 487 248 168 239 128 88 304 172 132 172 745 333 204
is_linear=0
shrinkage=0.05


Tree=26
num_leaves=31
num_cat=0
split_feature=2 1 2 0 1 0 0 2 2 1 1 0 0 0 1 0 0 0 0 0 1 0 1 0 0 1 0 1 0 0
split_gain=44.4831 54.1645 21.9887 12.2547 8.49424 8.15969 6.82119 5.88712 11.7566 5.9789 9.86921 6.55775 7.84661 5.64006 4.92451 4.75624 6.95808 13.2911 11.6671 12.4029 8.26861 9.44002 11.0724 10.6796 7.97432 7.40916 6.73066 7.44708 8.69081 6.7113
threshold=2015.5000000000002 4.5000000000000009 2021.5000000000002 176.50000000000003 2.5000000000000004 166.50000000000003 12.500000000000002 2007.5000000000002 2003.5000000000002 1.0000000180025095e-35 1.5000000000000002 160.50000000000003 134.50000000000003 179.50000000000003 5.5000000000000009 32.500000000000007 63.500000000000007 82.500000000000014 109.50000000000001 124.50000000000001 1.0000000180025095e-35 145.50000000000003 1.5000000000000002 180.50000000000003 207.50000000000003 4.5000000000000009 161.50000000000003 2.5000000000000004 172.50000000000003 26.500000000000004
decision_type=2 2 2 2 2 2 2 2 2 2 2 2 2 2 2 2 2 2 2 2 2 2 2 2 2 2 2 2 2 2
left_child=1 4 15 5 6 -3 -1 8 -8 11 -11 12 -10 -12 -4 29 -17 -18 -19 25 -21 -22 -23 26 -25 -20 -24 -28 -29 -2
right_child=2 3 14 -5 -6 -7 7 -9 9 10 13 -13 -14 -15 -16 16 17 18 19 20 21 22 23 24 -26 -27 27 28 -30 -31
leaf_value=-0.056512880193276493 0.014713611171073136 0.013496708531327485 -0.052504590704335913 0.061501015871825521 -0.047351260223632376 -0.056427987671420148 -0.026886840762028387 -0.026594268091099466 0.031868293927647111 -0.028474639983867452 0.037725160787590681 0.074463746817401893 -0.060464981175116256 -0.034947688891240718 0.0039406021882464268 0.044304729307885801 -0.018152639885891709 0.052915334350368472 0.011469976714649659 -0.0032670279857224685 0.069332258617635298 0.06410017709401164 0.024165030555689859 0.059532833229481635 -0.0095348748949836484 -0.05606716431640564 -0.080749060414901944 -0.048927015977724864 0.040713076667892402 -0.037819219928698605
leaf_weight=12.336322240531443 30.933693587779999 107.61462876945734 13.203486859798433 13.329765662550924 33.389957509934902 4.3403464853763571 53.175563052296638 107.29852800816298 9.4657141417264956 20.705887138843536 13.353829734027387 5.6159843802452079 3.0398833602666846 3.3369518816471091 5.4628505408763877 33.62109462916851 20.646384343504906 29.217036888003349 7.9660146832466152 20.926241606473923 13.97337932884693 13.040362119674681 9.0914294123649615 14.039099901914598 5.9504019469022742 8.2838422656059247 4.9372179061174366 5.7368956953287125 5.1145221143960953 7.5669535547494879
leaf_count=121 132 556 133 89 340 43 382 779 60 156 83 29 22 23 39 152 88 132 36 86 71 76 40 62 25 34 21 23 21 31
internal_value=-0.000238128 -0.010854 0.0162145 0.0161817 -0.023796 0.0107858 -0.0203514 -0.0182861 -0.0100845 0.00600885 -0.00541321 0.02958 0.00942375 0.0231958 -0.0359855 0.0204317 0.0236397 0.0192678 0.0248552 0.0173379 0.0243934 0.0324457 0.0235452 0.0117587 0.038973 -0.0229591 -0.0101062 -0.0298403 -0.00667758 0.00438876
internal_weight=636.714 387.003 249.711 125.285 261.719 111.955 228.329 215.992 108.694 55.5183 37.3967 18.1216 12.5056 16.6908 18.6663 231.045 192.544 158.923 138.276 109.059 92.8096 71.8833 57.9099 44.8696 19.9895 16.2499 24.8801 15.7886 10.8514 38.5006
internal_count=3885 2683 1202 688 1995 599 1655 1534 755 373 262 111 82 106 172 1030 867 715 627 495 425 339 268 192 87 70 105 65 44 163
is_linear=0
shrinkage=0.05


Tree=27
num_leaves=31
num_cat=0
split_feature=2 1 2 0 0 0 0 0 0 0 0 0 0 0 0 1 0 1 1 0 0 0 0 2 2 0 0 0 1 0
split_gain=40.7006 49.959 20.2164 8.56858 8.41444 8.7955 12.7103 9.18421 9.76018 6.80184 21.0827 6.42994 13.1511 6.3494 8.99109 6.61838 5.51543 5.44081 7.766 9.23076 12.2746 8.44652 5.99176 5.1269 5.28923 5.02573 6.00508 30.4155 10.2936 9.4419
threshold=2015.5000000000002 5.5000000000000009 2021.5000000000002 180.50000000000003 109.50000000000001 116.50000000000001 117.50000000000001 131.50000000000003 133.50000000000003 32.500000000000007 34.500000000000007 52.500000000000007 54.500000000000007 191.50000000000003 182.50000000000003 1.0000000180025095e-35 166.50000000000003 1.5000000000000002 2.5000000000000004 151.50000000000003 76.500000000000014 176.50000000000003 139.50000000000003 2007.5000000000002 2003.5000000000002 65.500000000000014 86.500000000000014 88.500000000000014 1.0000000180025095e-35 134.50000000000003
decision_type=2 2 2 2 2 2 2 2 2 2 2 2 2 2 2 2 2 2 2 2 2 2 2 2 2 2 2 2 2 2
left_child=1 9 -2 4 23 -6 -7 -8 -9 -1 -11 -12 -13 14 17 -16 -10 25 19 20 -19 -20 -22 24 -3 -14 -27 -28 29 -29
right_child=2 3 -4 -5 5 6 7 8 16 10 11 12 13 -15 15 -17 -18 18 21 -21 22 -23 -24 -25 -26 26 27 28 -30 -31
leaf_value=-0.042599858056780751 0.019626530130207334 0.019248040154884599 -0.035197883399184698 0.060049741625001443 -0.060963429913172856 0.095230616669518195 -0.058472273174542011 0.084411929705467764 0.0087420315204456561 0.10786274753426127 -0.049695361135473536 0.0921614915177075 0.026344147221664317 -0.0426634181462337 -0.01884149789928645 0.044512923108452021 -0.056075316825407798 -0.057775636119559048 -0.040277535440043762 -0.033880312273772542 0.013178678624258248 0.064782428411316081 0.062461858261922777 0.010460528973187125 0.060938922875864721 -0.055823296260280077 0.14964269618861201 0.0085894613165668973 -0.049936707373356023 -0.040228278865659724
leaf_weight=35.26037210971117 228.64087170362473 15.939855232834818 18.149739697575569 10.729839622974394 5.9654589295387259 3.4909339845180503 6.4411971271038082 3.6217615604400661 15.634744793176653 3.2274751216173163 17.792592793703079 2.6556828916072837 4.1448950394988051 26.548847585916519 7.0565661787986764 9.9135709628462791 4.153973475098609 4.6095058917999294 22.837100833654407 11.979833424091337 17.555853918194774 2.0880472064018241 9.50716884434223 31.842064768075943 14.553724765777586 18.077701605856419 2.4473551213741294 22.937765620648861 33.649864718317986 17.432139024138451
leaf_count=327 1030 78 172 77 26 14 52 15 85 13 150 22 35 235 37 51 43 40 227 80 88 12 40 154 72 138 11 158 274 129
internal_value=-0.000232708 -0.0104553 0.0155946 0.0175549 0.013069 -0.00504727 0.00495691 -0.00559994 0.00894744 -0.0221252 -0.019046 -0.0208173 -0.0184101 -0.0198032 -0.016509 0.0181687 -0.00486418 -0.0200272 -0.00920933 0.00350498 0.0176456 -0.0314764 0.0304917 0.024493 0.0391459 -0.0275443 -0.0299068 -0.0237798 -0.0295138 -0.0124905
internal_weight=628.887 382.096 246.791 112.374 101.644 39.3081 33.3426 29.8517 23.4105 269.722 234.462 231.234 213.442 210.786 184.237 16.9701 19.7887 167.267 68.5775 43.6524 31.6725 24.9251 27.063 62.3356 30.4936 98.6897 94.5448 76.4671 74.0198 40.3699
internal_count=3885 2683 1202 616 539 235 209 195 143 2067 1740 1727 1577 1555 1320 88 128 1232 487 248 168 239 128 304 150 745 710 572 561 287
is_linear=0
shrinkage=0.05


Tree=28
num_leaves=31
num_cat=0
split_feature=2 1 2 0 1 0 0 2 2 1 1 0 1 0 0 0 0 0 0 0 0 0 0 0 0 1 0 0 1 0
split_gain=37.1612 46.1108 18.4795 11.203 8.22765 7.1098 6.57128 5.53399 10.9945 5.27773 8.84429 6.02838 4.90115 4.85784 4.56728 4.55551 8.52909 10.0547 7.97581 6.46489 12.2318 11.1362 6.5235 6.72254 5.51772 9.30364 5.35458 8.72529 8.63089 7.20758
threshold=2015.5000000000002 4.5000000000000009 2021.5000000000002 176.50000000000003 2.5000000000000004 166.50000000000003 12.500000000000002 2007.5000000000002 2003.5000000000002 1.0000000180025095e-35 1.5000000000000002 160.50000000000003 5.5000000000000009 179.50000000000003 126.50000000000001 22.500000000000004 26.500000000000004 32.500000000000007 17.500000000000004 63.500000000000007 82.500000000000014 100.50000000000001 75.500000000000014 70.500000000000014 54.500000000000007 1.5000000000000002 180.50000000000003 188.50000000000003 3.5000000000000004 160.50000000000003
decision_type=2 2 2 2 2 2 2 2 2 2 2 2 2 2 2 2 2 2 2 2 2 2 2 2 2 2 2 2 2 2
left_child=1 4 15 5 6 -3 -1 8 -8 11 -11 14 -4 -12 -10 18 -17 -18 -2 24 22 -22 23 -21 25 -19 29 -28 -29 -23
right_child=2 3 12 -5 -6 -7 7 -9 9 10 13 -13 -14 -15 -16 16 17 19 -20 20 21 26 -24 -25 -26 -27 27 28 -30 -31
leaf_value=-0.055898346569131944 0.014206524066254392 0.012362965820156663 -0.05170642642589314 0.060182794982701529 -0.046325119362137263 -0.055744014479251661 -0.025498754483793015 -0.025159987309151866 0.03201348886066524 -0.026779441988640462 0.035891245420059517 0.071450521762353586 0.0056029930213090991 -0.032717841908086874 -0.031165476660021188 0.085784721557097043 -0.036904555033234691 0.079356789895629484 -0.051516692803234371 -0.026346979630404971 0.05873147284477509 0.01938736969816186 -0.052095693450493391 0.048813829022512571 0.073193729200895744 0.0086759537861820484 0.078595002647505838 0.0026371273944466346 0.074347842494887725 -0.013838345451276627
leaf_weight=11.419279612600802 19.935202762484554 106.96691276878119 12.325081408023836 12.318687066435812 31.368216253817081 3.9742709919810286 51.422508344054222 103.71597661823034 7.9482437223196047 19.827704191207886 13.406471200287344 5.6827984750270835 5.3500612825155249 3.1948256269097319 4.4689376354217529 4.9925674498081198 7.5679704099893561 6.4799104779958752 6.0071044266223899 7.1113266348838824 18.862304583191872 62.870066955685616 8.419483155012129 5.1147986054420471 9.9118124246597272 16.538449108600616 8.3797247260808962 18.157832086086277 5.4569062590599051 22.045802220702171
leaf_count=121 85 556 133 89 340 43 382 779 51 156 83 29 39 23 31 21 31 31 26 30 90 289 35 23 46 75 41 84 25 98
internal_value=-0.000236433 -0.0101221 0.014891 0.0149461 -0.0223615 0.00992315 -0.0189615 -0.0169498 -0.0089128 0.00672827 -0.0042364 0.0287964 -0.0343595 0.0226878 0.00927541 0.0187115 0.0212457 0.0196094 -0.0010121 0.0218682 0.0176291 0.0230814 -0.018227 0.00509654 0.0420039 0.0285734 0.0173296 0.0347622 0.0192081 0.0107613
internal_weight=621.241 375.715 245.526 123.26 252.455 110.941 221.087 209.667 105.951 54.529 36.429 18.1 17.6751 16.6013 12.4172 227.851 201.909 196.916 25.9423 189.348 156.418 135.773 20.6456 12.2261 32.9302 23.0184 116.91 31.9945 23.6147 84.9159
internal_count=3885 2683 1202 688 1995 599 1655 1534 755 373 262 111 172 106 82 1030 919 898 111 867 715 627 88 53 152 106 537 150 109 387
is_linear=0
shrinkage=0.05


Tree=29
num_leaves=31
num_cat=0
split_feature=2 1 2 0 0 0 0 0 0 0 2 2 1 0 0 0 1 2 0 0 0 0 0 0 0 1 0 1 1 0
split_gain=33.9404 42.51 16.9631 7.91179 7.40564 8.1594 11.4672 8.72434 8.85774 6.55831 5.76998 10.7493 6.02421 6.01868 5.53638 11.9989 15.9583 5.25879 5.24976 5.06511 7.35526 5.92876 4.87308 4.73691 8.12201 4.72381 4.6455 4.60091 8.6836 6.47188
